
float w1[6][4096] = {{ 2.54275843E-02, -9.63276047E-03, -8.29324378E-03,
				        -1.67757996E-02,  1.35460100E-02, -3.60281804E-02,
				         2.72296554E-02, -1.19193970E-02,  4.93106688E-03,
				        -3.93373285E-03,  2.28131302E-02, -3.22513755E-02,
				        -5.01642546E-03, -6.01985493E-03,  1.77505716E-02,
				        -1.71846962E-02, -2.77576569E-03, -1.36473658E-02,
				         6.68234284E-04,  9.14885487E-03, -1.72069283E-02,
				         1.78819575E-02,  1.41415785E-02,  7.92777747E-03,
				         1.40127885E-02, -1.06702089E-02, -1.88025084E-03,
				        -1.45266960E-02, -4.18981562E-03,  8.34972172E-03,
				        -1.07855403E-02, -6.10798213E-03, -1.07050241E-02,
				        -1.31539078E-02, -1.04468841E-02, -1.47515929E-04,
				        -1.74009119E-02,  3.72536279E-03,  2.59552562E-02,
				         1.16352296E-02, -2.97493643E-03, -1.38112368E-02,
				        -1.16217589E-02,  2.65082881E-02,  8.35483286E-04,
				        -9.90172961E-03,  3.00174903E-03,  3.28989149E-02,
				         1.90287531E-03,  9.65986990E-03,  4.80055980E-03,
				        -5.40272879E-03, -1.78639026E-02, -5.30152017E-03,
				        -3.20458221E-03,  9.18431119E-03,  1.31883894E-02,
				         1.45981517E-02,  4.56072701E-03,  1.38860668E-02,
				        -1.16739661E-02,  1.97728146E-02,  8.08919291E-03,
				        -4.47538388E-03,  7.60234612E-03, -1.20476784E-03,
				         1.77838133E-02,  2.37006549E-02,  3.41384369E-02,
				        -2.17963493E-02, -2.24495260E-02, -7.96989103E-03,
				         2.57370858E-03,  1.37345931E-02,  5.00510652E-03,
				        -3.16203494E-02, -4.71954695E-03,  1.29986090E-02,
				         3.56675206E-03,  1.19014661E-02, -3.35919430E-03,
				        -3.18526595E-03,  3.05212168E-03,  6.32521853E-03,
				         3.19609556E-03,  1.91012050E-03, -1.03930689E-02,
				         5.79006028E-03,  2.07406094E-03,  1.76941617E-02,
				         1.87291404E-02,  2.95189026E-03, -5.72662141E-03,
				        -1.00378869E-02,  6.80127335E-03,  1.19578877E-03,
				        -5.32576604E-03,  7.44063671E-04, -9.53995851E-03,
				         1.08318746E-02, -6.85201445E-03,  1.91948292E-02,
				         6.31047572E-03,  9.38859526E-03, -1.70720663E-02,
				         2.70285316E-03,  1.15578603E-02, -1.47406745E-02,
				        -4.24132042E-03,  6.74680721E-04, -2.14766717E-02,
				         4.98321380E-03,  1.33109177E-02, -1.33308351E-02,
				         5.43109554E-03, -2.03421661E-02, -6.41180592E-04,
				        -2.51163760E-02,  1.74939622E-02,  6.51920587E-03,
				        -3.79810236E-04, -1.20216634E-02,  1.99031933E-02,
				         3.08010888E-02, -2.90431828E-02,  1.93483307E-02,
				         2.54519563E-02,  5.34740257E-03, -1.87470590E-02,
				         1.34473718E-02, -2.77153127E-03, -9.42054852E-03,
				        -1.92056768E-02,  8.65480471E-03,  1.23939055E-02,
				        -9.77855303E-03,  8.15515597E-03, -1.79244068E-02,
				         1.24733982E-02,  8.40439751E-04, -2.91154122E-03,
				        -1.56204287E-03,  1.36557558E-02,  1.16891909E-02,
				         8.35957900E-03,  2.14198604E-03,  1.31119014E-03,
				         9.69424625E-03,  3.65887089E-03,  1.06766924E-02,
				        -4.75506260E-03, -3.79576073E-02,  1.61898451E-02,
				         3.42953664E-02,  6.93710548E-03, -1.52398735E-03,
				        -2.06621197E-03, -1.75838410E-03,  3.10369787E-04,
				        -1.73932463E-02, -7.97117586E-03, -1.55656568E-02,
				         4.01414749E-03, -4.47438418E-03,  7.71795062E-03,
				        -2.54248850E-03,  1.54199985E-02,  3.44724781E-03,
				         3.42928036E-02, -2.94944361E-02, -1.00348909E-02,
				         1.41882315E-02,  3.96489912E-02, -3.80834217E-03,
				         8.28858597E-04, -3.49137295E-03,  2.08518142E-02,
				        -4.31758877E-03,  1.06805492E-02, -4.88481383E-03,
				        -1.98230070E-02,  4.97992991E-03,  8.00798183E-03,
				         2.02229352E-02, -1.55594195E-03, -9.64297246E-03,
				         8.91498867E-03,  3.84809594E-03,  4.56564690E-03,
				        -1.06919089E-03,  1.82561552E-02,  5.82686258E-03,
				         2.97899847E-02,  1.73321020E-02,  1.03434068E-02,
				        -2.53841839E-02,  9.40568296E-03,  6.55122034E-03,
				         1.28098300E-02,  1.62748592E-02, -6.13769835E-03,
				         1.28489302E-02, -8.69882807E-03,  3.05221924E-02,
				        -2.07945758E-02, -2.75368516E-02, -2.57689605E-02,
				        -1.38118787E-02, -1.75443849E-02,  3.06315548E-02,
				        -5.10336152E-03, -2.09245688E-02,  1.75067443E-02,
				        -9.14955700E-03, -1.92929405E-02,  1.37650334E-02,
				         9.69717808E-03, -6.71838382E-03,  2.19818854E-02,
				         2.10428676E-03,  2.52844018E-02,  7.93251716E-03,
				         2.43590874E-02,  1.67400076E-03, -1.89225171E-02,
				         3.82890325E-02, -8.53162666E-03, -3.06873463E-03,
				        -1.08707620E-02, -3.18865844E-03,  3.83991392E-03,
				         3.22838431E-03,  1.03662753E-02,  2.80774201E-02,
				        -1.85100257E-03, -1.92720004E-02, -1.84334848E-02,
				        -1.03432732E-02, -2.61055103E-02,  1.29302123E-02,
				        -7.70440050E-03, -4.88382938E-03,  1.10492316E-04,
				        -2.17476468E-02, -1.33646626E-02,  1.06019560E-02,
				         9.79714698E-03, -6.96293373E-03,  2.83568641E-02,
				        -2.03058806E-02, -5.43151199E-03, -3.57998493E-03,
				        -4.35712728E-02,  3.02516364E-02,  5.83666129E-03,
				        -1.62004529E-02,  3.21322154E-02,  9.18000127E-03,
				         6.69259086E-03, -9.48677397E-03,  1.74340658E-03,
				        -2.38606969E-02,  1.25003305E-02, -5.91283158E-03,
				         2.25148162E-03,  1.87780650E-02,  4.50142471E-03,
				         4.15779685E-03,  4.43898326E-03, -1.13446005E-02,
				         1.30742818E-02,  2.41905845E-02,  1.19660382E-02,
				         1.38665892E-02, -1.36330995E-02, -1.35729958E-02,
				        -2.24463221E-02,  1.93301747E-02, -3.98306945E-03,
				         2.19183528E-02, -1.21887300E-02, -6.68804915E-03,
				         1.47683107E-03,  1.44718684E-02,  9.46622586E-04,
				         3.28330759E-03,  4.57580097E-04,  2.77419405E-03,
				        -1.74069033E-02,  1.28028420E-03, -2.88626894E-03,
				        -8.23524149E-04,  7.74785746E-03, -1.04738036E-02,
				        -1.35058250E-03, -4.49447319E-03,  6.51327648E-03,
				         1.23314992E-02, -1.48384634E-02,  9.30686144E-03,
				         3.23153324E-02, -2.28613410E-02, -1.28402657E-02,
				        -1.35830600E-02, -4.28046351E-03,  2.54903168E-02,
				         2.64338688E-04, -1.06957975E-02,  9.76267936E-03,
				        -9.26800008E-03,  1.76666201E-02,  4.91111183E-03,
				         2.17438256E-02, -1.02141101E-02,  4.74335936E-02,
				         1.29637079E-02,  1.02773452E-02, -6.99176522E-04,
				        -1.13152107E-02, -1.35572617E-02, -2.22844491E-03,
				        -1.23983851E-02,  4.48560599E-03, -1.28818895E-02,
				         9.74232305E-03,  1.50262901E-02, -1.09592151E-02,
				         1.86882729E-02, -3.80121999E-03,  1.81107796E-02,
				         6.81812064E-03,  1.75807123E-02, -1.55797732E-02,
				        -1.76944307E-03,  2.27951700E-02, -9.77695025E-03,
				        -3.18806811E-02, -3.03212248E-02, -3.92384136E-02,
				        -3.30536184E-02, -6.48570505E-03,  2.00073389E-02,
				        -6.95877281E-03,  5.08802723E-03, -1.79481142E-03,
				         2.79694012E-05, -2.56827722E-03, -2.82551753E-03,
				         7.25915762E-03, -1.85074158E-02,  1.57521094E-02,
				         1.43530026E-02, -3.16023390E-03,  1.26546098E-02,
				        -1.09699022E-02, -8.46360093E-03,  2.41724321E-03,
				        -2.95565215E-03, -7.05348901E-03, -1.05448432E-02,
				        -8.64599997E-03,  1.46344931E-02, -3.03027537E-02,
				         5.45191016E-03, -3.65606164E-03,  1.14212125E-02,
				         8.08430537E-03, -4.34969124E-02,  9.17407847E-03,
				         5.14417550E-03,  4.08463384E-04, -7.19859581E-03,
				         1.33914485E-02, -6.39019076E-03,  2.87299378E-02,
				         8.91734027E-03,  3.34366703E-02, -1.21658863E-02,
				        -2.74112113E-02,  1.12436210E-02,  1.33254617E-02,
				         6.45997600E-04, -2.39864112E-02, -6.92394943E-03,
				         9.69491627E-03, -2.89045781E-03, -1.79327212E-03,
				        -2.67788092E-03, -1.45703065E-02, -8.37602222E-03,
				        -2.22044243E-02,  2.76774397E-02, -7.30751378E-03,
				         7.51046838E-03, -1.58822872E-02,  1.23946932E-02,
				        -2.90803851E-02,  1.43947787E-02, -5.07148567E-04,
				         3.30226499E-02, -2.03382288E-02,  1.09556735E-03,
				         5.83224559E-03,  1.92522706E-02, -6.62373705E-03,
				         1.33320661E-03, -3.34656839E-02, -1.30075713E-02,
				         7.04766889E-03,  1.73372530E-02, -4.43703291E-03,
				         3.21091879E-02,  2.74455077E-02, -9.44651544E-04,
				        -3.77539575E-02, -2.77383105E-02, -1.22003020E-02,
				         1.74184543E-02,  4.81447791E-03, -3.26665069E-02,
				        -3.67341673E-03,  2.52391557E-02, -5.87677254E-03,
				        -1.16680259E-02,  3.21090595E-02,  8.89849267E-04,
				        -7.44259112E-03,  5.53609025E-03,  3.67737362E-04,
				        -6.63426363E-03,  1.88881886E-02,  1.75206868E-02,
				         1.32619360E-02, -1.60544363E-03,  1.79767617E-02,
				        -6.64965692E-04,  7.41166495E-03,  1.62930841E-02,
				         1.27794272E-02,  2.80300199E-02,  7.19407645E-03,
				        -2.62928187E-02, -1.80051534E-02,  2.11321357E-02,
				        -5.13396899E-03,  6.12533924E-03, -1.32095760E-02,
				         1.57004871E-02, -5.98673051E-03,  2.28262608E-02,
				        -8.35949158E-03,  1.75318032E-02,  1.05742048E-02,
				        -1.11589002E-02,  1.71738818E-02, -1.40924544E-02,
				        -1.28591601E-02,  1.12907439E-02, -9.81790764E-03,
				        -9.31404875E-03, -5.34156682E-03, -1.57384035E-02,
				         1.62451177E-02,  9.50815075E-03, -1.20537814E-03,
				        -1.73583276E-03,  6.95053709E-03,  2.75070922E-02,
				         1.34958724E-02, -8.00950576E-03,  1.20396828E-02,
				        -1.94191832E-03, -3.22240077E-03,  2.91029251E-02,
				        -6.69526718E-03, -7.53790676E-03, -3.05908391E-02,
				        -2.20134527E-02,  6.96375796E-03, -1.09332448E-02,
				         7.87632096E-03, -1.74300361E-02, -1.20691317E-02,
				         1.04949922E-02,  2.27486160E-02,  9.25529997E-03,
				         1.86113411E-02,  2.65572805E-02,  1.62217561E-02,
				        -1.44331212E-02, -1.65389317E-03,  9.79720404E-03,
				        -6.57513482E-03,  7.02145834E-03, -2.45897488E-02,
				        -1.30226250E-02,  8.28322606E-03, -3.47571817E-02,
				        -1.73551267E-02, -1.49057606E-04, -2.68102855E-02,
				         8.89326727E-04, -1.24299818E-02, -4.50338014E-03,
				        -4.05755219E-03,  3.11795530E-03, -8.80954937E-03,
				         1.50823800E-03, -9.35124680E-03,  8.77930633E-03,
				         2.64299448E-02,  3.18615544E-03,  2.58421880E-03,
				        -1.81146718E-02,  1.09069878E-02, -1.18719572E-02,
				        -1.25654014E-02,  8.67008051E-03,  2.89970151E-03,
				         1.73470879E-02,  2.25303215E-02, -8.37160014E-03,
				         2.00887155E-03,  2.76031955E-02,  1.50271950E-02,
				         1.12747031E-02,  2.02869475E-02, -9.49396965E-03,
				         9.91331959E-03,  2.19454609E-02,  2.52758104E-02,
				        -1.26715594E-02, -3.95604432E-03,  5.88467431E-03,
				        -4.53884557E-03, -6.24868988E-03,  1.05916305E-02,
				        -5.67817119E-03, -2.80306143E-02,  5.60302386E-03,
				        -6.65250584E-03, -1.15281082E-02, -2.45179376E-02,
				         1.58403632E-02, -3.48365661E-02, -2.66962611E-02,
				        -4.38709707E-03,  1.91261418E-02,  2.03844586E-02,
				        -1.81321432E-02, -2.77746510E-03, -2.36647402E-02,
				         1.58349050E-02, -2.31866068E-02, -2.21818595E-03,
				         1.60877717E-02, -3.36595608E-03,  2.28729078E-02,
				        -1.35370807E-02,  5.80326201E-03,  1.33412871E-02,
				        -2.16378275E-03,  2.17333243E-02,  8.57849094E-03,
				        -2.54557169E-02,  6.19343653E-02,  1.02503291E-02,
				         1.78389542E-03, -2.16960756E-02,  1.22476750E-03,
				        -7.06069917E-03,  1.01483938E-02,  5.87513758E-03,
				         2.89332691E-02,  2.34908843E-03,  7.98607397E-03,
				         5.85756001E-03, -2.44543911E-03, -2.79605799E-03,
				         1.71880906E-02,  1.22128556E-02, -9.80629968E-03,
				        -1.75269568E-02, -9.89067058E-04,  1.81995012E-02,
				        -5.07616141E-04,  2.73336405E-02, -1.21649910E-02,
				         2.10944765E-03, -3.94335655E-02, -9.32075282E-03,
				        -4.99859657E-03,  7.96963242E-03,  2.66538724E-02,
				         3.93866637E-04,  2.26161099E-02,  1.01737095E-02,
				         1.53056110E-02, -7.51307931E-03,  2.15847777E-02,
				        -1.68451763E-02,  7.66486233E-03, -1.49710493E-02,
				        -8.26043385E-03, -2.29671918E-02, -8.20068733E-03,
				         5.37834456E-03, -1.32084212E-03, -2.10771442E-02,
				         2.28951880E-02,  5.19980174E-03,  1.56682138E-02,
				         1.22527277E-02, -1.05387448E-02, -3.04212281E-02,
				        -1.44491484E-02,  1.91249004E-02, -1.65684237E-02,
				         1.26566768E-02, -9.60723576E-03,  6.03973495E-03,
				        -2.84966232E-02,  1.81577266E-02, -6.15538226E-04,
				         1.38952663E-02,  2.95846179E-03,  1.25006167E-02,
				        -1.60342517E-03,  1.17056662E-02, -2.36000078E-02,
				        -1.68345040E-02,  1.12901655E-02, -5.06849005E-04,
				        -3.51773415E-03, -2.78708664E-03,  8.00963251E-03,
				        -9.37235981E-03,  8.17420570E-03, -1.43152344E-02,
				        -6.31184968E-03,  1.54243102E-02,  1.68302693E-02,
				        -1.71849794E-02,  1.31589813E-02, -1.62814006E-02,
				         1.14644756E-02, -2.95706633E-02, -1.75383331E-02,
				        -7.81925172E-03, -2.69690728E-03,  2.23135723E-02,
				         1.40115571E-02,  2.47000706E-02,  1.87742275E-02,
				        -4.40689541E-03, -4.20699528E-03,  1.65107802E-02,
				         5.86072142E-04, -2.55847435E-03, -2.09142317E-02,
				        -1.77334946E-03, -4.37033736E-02, -7.20959999E-03,
				        -1.54657126E-02,  1.06145898E-02, -7.56588936E-03,
				        -5.27484910E-03,  2.09318533E-02, -1.64540170E-02,
				         4.82105491E-03, -2.95851287E-02,  1.42305810E-03,
				         6.24117941E-03,  1.34228398E-02, -1.41879313E-02,
				         4.95063707E-03,  4.83416272E-03, -3.33153580E-04,
				         2.25465639E-03,  7.17450381E-03,  6.16190525E-03,
				        -1.56445184E-02, -1.87220416E-02,  3.90620195E-02,
				         2.99826023E-02, -2.18045487E-02,  7.03985500E-03,
				         9.69140725E-03,  1.17942337E-02,  2.20032326E-03,
				        -1.44355674E-02, -2.88758252E-03, -7.55639542E-03,
				         2.15971657E-03, -4.06204400E-03, -1.97149662E-03,
				         1.60145629E-02,  1.93046934E-02, -1.84179432E-02,
				        -7.15476815E-03, -1.22897174E-02,  1.91447388E-02,
				        -8.91027612E-04,  2.26608412E-02, -7.45611731E-03,
				         3.84254459E-04, -2.11120372E-02,  2.03124197E-02,
				        -5.59422794E-03, -2.32865658E-02, -9.22143942E-03,
				        -3.60860235E-02, -4.96975433E-04,  1.71133453E-03,
				         4.48116203E-03,  2.34428340E-02, -4.80543929E-03,
				         1.25938515E-02,  4.63685704E-03, -3.04202476E-03,
				        -3.25911857E-02,  1.46499801E-02, -8.01893453E-03,
				         1.24476466E-04, -2.00345310E-02,  4.30358303E-03,
				         1.51234362E-03,  3.48192236E-04, -2.21199295E-03,
				         1.62318179E-02,  1.49222045E-02,  1.12207240E-02,
				         5.17860452E-02, -9.58874732E-03, -6.07306636E-03,
				        -1.59944569E-02,  6.66650312E-03, -1.08389605E-02,
				        -4.22341656E-02, -1.91383779E-02,  1.12243562E-03,
				         1.55856509E-02, -2.43815115E-02, -9.72520134E-03,
				        -2.22241717E-03, -1.14675852E-02,  8.12267168E-03,
				         5.31418537E-05,  4.96063596E-03, -1.13976161E-02,
				         2.39050033E-02,  2.73124490E-06,  2.01452826E-02,
				        -6.88829162E-03,  9.32890462E-03, -1.06229541E-02,
				        -1.48122901E-02, -1.10381493E-02, -7.01967187E-04,
				        -3.34362180E-03,  2.40701837E-02, -1.78296078E-02,
				        -1.69720863E-02,  2.66540535E-02,  9.52143727E-03,
				        -2.93330374E-02,  7.71767498E-03,  3.83798649E-03,
				        -3.34799224E-02, -5.80584629E-03, -1.75668519E-04,
				         1.14061265E-02,  1.49362832E-02,  1.50333891E-03,
				         1.61515063E-02, -2.29908794E-03, -1.33933769E-02,
				        -1.45741988E-02,  8.49054681E-03, -3.06928813E-02,
				         1.06069286E-02, -1.73179276E-02, -5.63175773E-03,
				         7.77223490E-03,  1.89125157E-02, -3.04107740E-02,
				        -1.27378293E-02,  6.08665174E-04, -9.38020256E-03,
				         1.32737741E-02, -3.27028221E-02,  5.48850252E-03,
				         6.58144625E-03,  5.52808466E-04,  1.71520570E-02,
				        -1.93378610E-02,  1.72755726E-02, -1.10534954E-02,
				         1.13050191E-02, -5.20770633E-03,  1.26684853E-02,
				         1.21308445E-02, -2.29731339E-02, -2.48853809E-03,
				        -1.50959544E-03, -3.79766641E-03, -1.19268088E-02,
				         2.88621101E-02,  3.14315900E-03,  2.42186048E-02,
				        -8.98414559E-03, -1.67026438E-02,  2.06959348E-03,
				        -8.86645721E-03,  3.73273566E-02,  3.75928862E-03,
				         1.80660210E-02, -3.63479860E-03, -5.04743064E-03,
				        -5.24640247E-04,  5.62645989E-03,  1.34125156E-02,
				        -1.81394971E-03, -1.05860508E-02, -1.65921192E-02,
				        -1.17407265E-03,  8.95463563E-03,  7.17811293E-03,
				        -2.15372168E-04, -9.33564190E-03,  2.41963265E-03,
				         8.98468938E-03, -5.36709468E-04,  1.70804425E-03,
				        -2.32645729E-03,  1.42180289E-02, -6.71222389E-03,
				         2.73477099E-03,  6.21594371E-03,  1.12907488E-02,
				         2.34294607E-02,  1.04599674E-02,  9.33317383E-03,
				        -2.30036153E-02,  9.32986278E-03,  3.57168107E-02,
				        -1.31373174E-02, -1.60556551E-02, -3.43754136E-03,
				         1.57377757E-02,  8.10222192E-03, -7.56017556E-03,
				        -7.44150522E-04,  1.60644806E-02,  1.03753940E-02,
				         3.78269418E-02,  1.55219608E-02,  5.45849946E-03,
				         9.36487597E-03, -5.52402823E-03, -1.54740171E-02,
				         2.51654936E-03,  7.59293004E-03, -2.19223156E-02,
				        -8.32574845E-03, -5.83753790E-03,  4.05789316E-03,
				        -4.17761402E-03,  6.80982907E-03,  1.48973026E-03,
				         1.63848915E-02, -2.67799164E-02,  2.57815762E-02,
				         2.20985907E-02,  7.81657478E-04,  1.00429638E-02,
				         9.39530623E-03, -1.15934249E-02,  2.55248528E-03,
				         1.20335795E-02,  4.77838310E-03,  1.65774115E-02,
				         1.43899021E-03,  1.22504666E-03, -1.19221117E-02,
				        -5.66715417E-03, -7.19029596E-03,  2.67427001E-02,
				         3.81670587E-03, -1.55904280E-02,  6.42652520E-03,
				        -3.01638160E-03, -4.76911982E-02,  7.58390549E-03,
				        -2.43818708E-02,  9.11824120E-03, -1.50895770E-02,
				        -2.27095520E-02,  7.69597858E-03, -2.33652850E-02,
				        -6.99620532E-03,  3.18193736E-03,  9.63014683E-03,
				         1.15825449E-02, -5.71338463E-04, -1.30548616E-02,
				         3.00691786E-02, -9.47772894E-03,  2.81496665E-02,
				        -7.08891666E-03,  1.80432423E-02,  1.66127809E-02,
				        -1.64047292E-02,  5.41366431E-03,  1.16852566E-02,
				         1.07102411E-02, -3.16551600E-03,  4.59211181E-03,
				        -6.36145166E-03, -1.84510760E-02,  1.52275467E-02,
				        -8.82896944E-03,  2.14579744E-02,  9.27862783E-03,
				        -1.40661548E-02, -2.57139508E-03, -4.61828068E-03,
				        -1.36788768E-02,  7.77733455E-03, -7.62924355E-03,
				         2.54173560E-02,  1.33234659E-02, -1.37965169E-02,
				        -3.98835510E-04, -3.57309603E-03, -2.45749145E-02,
				         1.44336398E-02,  1.47040025E-02,  1.44409868E-02,
				        -7.26060241E-03,  1.65932799E-02, -3.26091261E-03,
				         1.45481951E-02,  2.83809603E-02,  2.13554435E-03,
				        -2.23104436E-02, -4.84949164E-03,  1.00833038E-02,
				         1.90266558E-02, -1.75893205E-02, -3.00202131E-03,
				         3.70156643E-03,  6.86252801E-03,  1.43278143E-02,
				        -1.48636721E-02, -6.47509417E-03,  1.57490292E-02,
				         6.17658437E-03,  7.07604691E-03,  1.76488812E-02,
				         1.57902326E-03,  8.25097124E-03, -4.93318339E-03,
				        -2.09670392E-02, -2.02289812E-02,  1.07526472E-03,
				        -3.16340239E-03, -1.01838196E-02,  4.93136486E-03,
				        -1.38950631E-02,  1.65168502E-03, -3.96511061E-04,
				        -1.32583967E-02, -3.60350042E-02,  2.26156732E-02,
				         4.79570344E-03, -4.18065331E-02, -6.71305337E-03,
				         6.01288064E-03, -3.70330926E-03,  8.92164420E-03,
				        -1.53639218E-02,  2.62312434E-03, -1.01592486E-03,
				        -2.94398636E-03, -3.59775799E-03,  2.99449577E-03,
				         1.44642267E-02, -8.40961689E-03, -6.45812031E-03,
				         2.29708951E-03, -1.91598343E-03,  5.88881960E-03,
				         1.12671417E-02,  1.99402940E-02, -1.81233636E-03,
				        -3.56432278E-02, -1.20512849E-03,  5.39355542E-03,
				        -2.99241644E-03, -2.40425171E-03, -3.81476065E-02,
				         7.78489257E-03, -5.08577443E-03, -2.36784525E-02,
				        -1.36475760E-02, -1.36638637E-02,  9.50067099E-03,
				         8.80790637E-03,  2.36790607E-02,  1.00652136E-02,
				        -2.11140355E-02, -2.20145869E-02,  1.77178772E-02,
				         2.44940412E-02, -3.53380994E-03,  8.62726064E-03,
				        -2.33765696E-02, -3.03510448E-02, -1.82981464E-02,
				        -5.55164469E-03, -8.05320212E-03, -3.54821830E-03,
				        -7.67958119E-03,  1.06085845E-02,  2.23423569E-02,
				         4.74233964E-04,  3.17260929E-02, -9.92781566E-03,
				        -8.20664614E-03,  6.10804122E-03, -5.62084901E-03,
				         1.84202308E-02, -1.00847331E-02,  2.06636990E-02,
				         3.03557457E-03,  4.00366786E-02, -7.32239195E-03,
				        -3.23230201E-03,  2.27949772E-03, -3.42095426E-02,
				         9.28527968E-03,  7.44717779E-03,  1.55280885E-03,
				        -2.42117731E-02, -2.43363424E-02,  9.06155699E-03,
				         1.82661609E-02,  2.47050695E-02, -1.40233396E-02,
				        -1.63196314E-02, -4.27921551E-03, -3.09566105E-02,
				        -9.29991529E-03,  1.32512767E-02,  2.54525764E-02,
				         4.21436528E-03,  2.55482811E-02,  6.36843750E-03,
				         2.81940869E-03, -2.77476813E-03,  2.78465007E-03,
				        -4.06666702E-03, -2.34388209E-03, -1.04329195E-02,
				         3.96766707E-03,  1.74801120E-04, -2.32443637E-02,
				        -3.89979317E-03, -1.33213810E-02, -3.21171266E-02,
				         7.48521686E-03,  2.43035326E-02,  3.70861298E-02,
				         2.44409440E-02, -1.35363774E-02,  1.83347762E-02,
				         1.75179408E-02, -3.09737442E-02,  1.34569143E-02,
				         9.89704811E-03,  2.58121009E-03,  4.56585492E-03,
				         9.47148204E-04,  2.55196864E-02, -6.14426788E-03,
				        -3.19998271E-03,  2.38128030E-04,  4.26805106E-03,
				        -2.75365715E-02,  2.16656087E-02,  3.60032102E-03,
				         8.96332006E-03,  3.05747365E-03, -2.90390969E-03,
				        -5.57715838E-03,  1.53273198E-03,  2.31843620E-03,
				         1.80372231E-02,  5.33710264E-03, -2.16365267E-03,
				         3.10340519E-02, -2.00871606E-02, -2.11011856E-02,
				         5.53570250E-03, -3.50090650E-03, -2.78004320E-02,
				        -4.97754429E-03, -1.11815499E-02,  1.74763600E-02,
				        -9.81845836E-03,  1.63600504E-02,  7.04039943E-03,
				        -3.37008344E-03,  2.87289047E-04,  6.56391868E-03,
				        -3.62267028E-02,  5.04620372E-03, -6.07655936E-03,
				         2.79611527E-02, -1.08559295E-02,  1.77374694E-02,
				        -3.94114092E-02,  1.27043541E-02,  4.20260581E-03,
				        -3.93422843E-03, -1.98297651E-03, -4.08851434E-03,
				         6.50577201E-03, -2.18953449E-03, -2.81293714E-02,
				        -2.89350225E-03,  3.48239339E-02,  6.22361869E-04,
				         4.62903770E-03, -6.92932662E-03,  2.71150210E-03,
				         2.82716805E-03, -4.19610819E-03,  1.35578000E-02,
				        -1.43485526E-02, -2.05564362E-03,  8.00441031E-03,
				        -4.21198405E-03, -1.89804346E-02,  8.77689023E-03,
				        -1.53064868E-02, -6.91006264E-03, -1.30223447E-02,
				        -1.70469619E-03, -6.70930173E-03, -7.42948333E-03,
				         1.06270259E-02,  2.76430373E-02, -5.59489808E-03,
				         8.11462497E-03, -5.56980591E-03,  1.61154556E-03,
				         1.75792255E-02,  8.18468972E-04, -1.27552955E-02,
				        -1.14361992E-02, -9.64855515E-03, -2.72992474E-04,
				         1.33547984E-02, -2.13021909E-02, -1.62204575E-02,
				        -1.45453626E-02, -2.74042929E-02,  2.06372394E-02,
				        -6.39864181E-04,  2.95775515E-02, -2.23396445E-02,
				         2.01756472E-02, -1.11524956E-02, -6.46110147E-03,
				        -1.54991699E-02, -1.49621039E-02, -2.07723934E-02,
				         3.30478112E-03, -2.06255612E-02, -3.87981699E-03,
				        -2.40809533E-04,  1.03420569E-02,  1.47513914E-03,
				         4.94296661E-03,  7.82560323E-03, -3.13772126E-04,
				         5.66480126E-03, -1.54965529E-02, -1.21457475E-02,
				         2.94390015E-02, -2.91798828E-04, -1.11973873E-02,
				         2.15780687E-02, -2.66507690E-03, -1.01081163E-02,
				        -2.27860769E-02,  1.21931761E-02, -1.70152540E-02,
				        -8.45551528E-03,  1.01750275E-02,  2.90830144E-03,
				        -1.35077421E-03, -3.25301683E-03,  1.77830036E-02,
				         3.48636191E-02, -8.50513341E-03,  8.85169320E-03,
				         3.02201586E-02,  1.68579705E-02, -1.06882754E-02,
				        -6.72651429E-03, -9.30951441E-03, -1.42304973E-02,
				        -9.75837968E-03,  4.07016577E-03, -9.25383129E-03,
				         1.37461185E-02,  1.92281773E-03, -6.14525430E-03,
				         1.37332101E-02,  5.03565244E-03,  4.05640618E-03,
				         1.62046931E-02,  8.98486212E-03, -1.77938655E-03,
				         1.46684244E-02,  4.75826531E-03,  4.55379960E-02,
				         1.70311368E-02,  1.80376271E-02,  2.00730683E-02,
				         1.14925545E-03,  2.03759168E-02,  2.55446044E-04,
				        -1.31037125E-02, -8.90878443E-03,  8.17068301E-03,
				        -2.45134499E-02,  3.15023885E-03, -1.14679097E-02,
				         1.10805060E-02, -1.17821243E-02,  2.91493483E-02,
				         1.19512583E-02, -1.98813861E-02,  2.73692266E-02,
				        -3.64889305E-03, -1.13894190E-02, -1.59722090E-02,
				         8.63273329E-03,  2.34796056E-02, -9.17085006E-03,
				        -1.56177545E-02, -1.78589505E-02,  2.33512380E-02,
				         2.60028190E-02, -5.52389369E-03,  8.38659369E-03,
				        -1.04467801E-04, -1.03681890E-03,  1.50115252E-02,
				         6.84400531E-03,  5.18055371E-03, -4.64087132E-03,
				         1.27616334E-02, -4.36180900E-03,  7.32700721E-04,
				         3.56309484E-03, -1.87732941E-02, -4.60229659E-03,
				        -4.92356227E-03,  1.67223210E-03, -1.73709407E-02,
				        -1.86285762E-02,  2.54803792E-02,  1.80468111E-02,
				         1.38496709E-02,  2.85191123E-02,  6.47992672E-03,
				        -1.30329713E-03,  7.40387595E-03, -2.92622011E-02,
				        -1.72786135E-02,  1.19355674E-02,  4.96361968E-04,
				        -1.99992902E-02,  1.02634778E-02,  1.55424466E-02,
				         1.03738510E-02, -4.70706157E-04, -1.31178161E-02,
				         1.74518853E-03,  6.56992143E-03, -5.70075397E-03,
				         9.32064084E-03,  4.84565424E-03,  5.16217483E-03,
				        -3.18393670E-02,  1.68313333E-02,  2.69244273E-02,
				        -6.46546136E-03, -2.31581566E-02,  9.91482577E-03,
				        -7.34136881E-03, -1.51677995E-02,  1.90123093E-02,
				        -2.17073044E-02,  1.10409092E-02, -1.94803258E-02,
				         2.27961834E-02,  7.92848131E-03, -4.13415935E-03,
				         2.27179644E-03,  9.05711780E-03,  1.28164845E-02,
				         1.29171940E-02,  8.36212039E-03, -7.55028758E-03,
				         1.03149532E-02, -2.05067528E-02,  1.55899964E-02,
				         1.35976284E-02,  2.16726920E-02, -9.14770361E-03,
				         2.91482556E-03,  1.33940898E-02,  4.92512067E-03,
				        -6.57250152E-03,  4.74482933E-03,  1.23277910E-03,
				         1.54928632E-02, -9.80832772E-03,  5.28619987E-03,
				         4.61573542E-03,  1.19318154E-02, -1.26233590E-03,
				         2.12508745E-03, -1.17964169E-03,  6.01445352E-04,
				         3.34210537E-06, -5.10176154E-03,  4.41466334E-02,
				        -1.31918674E-02, -1.83745494E-02, -1.23865710E-02,
				        -1.10840813E-02,  1.56003462E-04,  2.22577867E-02,
				         2.63710812E-02,  3.64451424E-03, -3.89913112E-02,
				         5.88864494E-03, -2.04482945E-02, -7.94260519E-03,
				        -1.80078687E-02,  6.45971379E-03, -9.80816072E-03,
				         1.20153013E-02,  7.30228393E-03, -3.74746070E-03,
				         1.06471429E-03,  1.43332932E-02, -5.93134484E-03,
				         1.42464009E-02, -3.57333660E-04,  4.17946545E-03,
				         1.23490614E-02,  2.07183782E-02,  8.13323574E-03,
				         7.84974726E-04,  1.12596362E-02, -2.41969968E-02,
				         2.55495160E-02, -2.07943657E-02,  1.41462321E-02,
				        -8.91646763E-03,  7.88704810E-03, -1.89289495E-03,
				         4.69048929E-03, -1.25602184E-02, -3.37422157E-02,
				         6.25564084E-03, -9.43294362E-03, -1.02024996E-02,
				        -1.13759256E-02,  3.09282398E-02, -9.13540351E-03,
				         5.05185464E-03, -1.82755549E-02,  2.38150459E-02,
				        -8.68008531E-03, -4.05997937E-02,  4.23701247E-02,
				        -1.72212888E-02,  2.05594418E-02,  1.14837384E-02,
				         1.01967522E-02, -3.56981605E-03,  2.95325905E-03,
				         1.91865121E-02, -4.74248861E-03,  3.90567549E-03,
				         1.44784087E-02,  1.29571793E-03, -6.69436124E-03,
				         2.27033066E-02,  5.29880575E-03, -1.93706524E-03,
				        -1.21704529E-02, -1.57787467E-02,  1.40094343E-02,
				         1.48428296E-02, -3.38842030E-02, -9.74096630E-03,
				         1.50144297E-02,  3.79753114E-02,  3.35172874E-02,
				         1.46470790E-02,  2.14454406E-02, -8.27964746E-03,
				         1.20090398E-02, -1.93629431E-02, -8.83442984E-03,
				         4.96793122E-03,  3.38731384E-02,  1.15625798E-02,
				         4.26149322E-03, -2.74745619E-03, -2.07134249E-02,
				         9.33373092E-03, -5.45338932E-03,  3.70556942E-03,
				        -1.39654284E-02,  1.85045814E-03, -2.40390445E-02,
				         7.77599863E-03,  2.05894908E-02,  1.42697747E-02,
				         3.29045478E-02,  5.09926505E-03,  7.86265634E-03,
				         8.05206424E-03, -1.38437365E-02,  3.35757249E-02,
				         1.53564355E-02, -3.85754454E-03, -1.40964030E-02,
				         8.98212852E-03,  1.34130107E-02,  2.08938827E-03,
				         2.93825248E-03, -2.95030452E-03, -2.70753945E-05,
				         2.07632345E-02,  2.19341568E-02, -2.35218376E-02,
				         2.22882973E-03, -1.87574571E-02, -2.08839538E-02,
				         9.19018966E-03, -1.30515872E-02, -4.93088934E-02,
				         1.01377835E-02,  1.99762466E-02,  3.19706101E-02,
				        -6.34051521E-03,  2.27053837E-02, -4.11186860E-02,
				        -1.63305536E-02,  8.07392096E-03,  7.35774950E-03,
				         2.05806681E-02,  1.50330026E-02, -1.38980407E-03,
				         2.39410798E-02,  1.05895495E-02,  2.68234180E-02,
				        -1.25401991E-02,  4.60200040E-03, -6.79138230E-03,
				         1.24678085E-02, -3.46433961E-03, -3.88221551E-03,
				        -2.08739537E-02,  4.83198595E-03,  1.72806961E-02,
				         1.57127825E-02, -4.72422308E-02, -2.53113713E-02,
				         3.12815908E-02, -3.01472077E-03, -2.41113518E-03,
				         1.82534093E-02,  3.03745008E-03, -9.88776986E-03,
				        -3.45218454E-03,  2.96545666E-02, -2.15811875E-02,
				         2.02790126E-02, -4.87373595E-03, -4.23414170E-03,
				         2.89986985E-02, -9.97124205E-03,  1.29071899E-02,
				        -5.67375582E-03, -2.24707619E-02, -2.53698298E-03,
				         1.82373877E-02, -2.92659206E-03,  8.53301727E-03,
				         2.92252393E-03,  6.80656838E-04, -6.58996309E-03,
				         2.06108881E-03, -3.18861324E-02, -7.04561021E-03,
				        -2.82368277E-02,  4.17347614E-03,  5.54368425E-03,
				        -1.24640602E-02,  1.25203515E-02,  6.12975644E-03,
				         4.60475324E-03, -5.66177796E-03,  7.37880748E-03,
				         1.64645360E-02, -1.03109395E-02, -1.28308566E-02,
				         1.85514093E-02, -3.63048264E-02, -4.09726493E-02,
				        -2.82863927E-02,  2.79652674E-03,  2.32648870E-03,
				         7.75327009E-03,  1.15049072E-03,  2.40750190E-02,
				         2.46450859E-02,  1.80931551E-02, -1.80919544E-02,
				         5.63426128E-03, -1.35393744E-02, -7.85769502E-03,
				        -1.60690584E-02,  2.40370142E-04,  8.38340784E-03,
				         1.23433585E-03, -1.87807513E-02, -2.38431306E-02,
				        -1.19936894E-02, -1.21644757E-02,  1.22502563E-02,
				        -5.14676502E-03, -2.96151574E-03, -2.44156253E-03,
				         1.70965108E-02,  2.54985025E-02,  6.57633813E-03,
				        -3.87363766E-03,  2.19703478E-02,  6.81877231E-03,
				        -6.66280986E-03,  1.57765799E-02,  3.23371473E-03,
				        -2.24045779E-02,  9.76537231E-03,  4.71792332E-03,
				        -2.90509050E-02, -3.35895266E-02,  2.10554800E-03,
				         1.06451900E-02,  9.48753150E-03, -2.12294665E-02,
				        -5.46669953E-03,  1.04097236E-02, -2.40917630E-02,
				         1.29739351E-03,  3.31292611E-03,  1.44208565E-02,
				        -3.83415542E-02,  2.21685094E-03,  3.15151854E-02,
				        -9.80550957E-03, -4.98287835E-03,  1.48768091E-02,
				        -1.18933071E-02,  1.80345201E-02,  8.48099346E-03,
				        -2.46452983E-02,  1.57707530E-03, -2.28266818E-02,
				         1.49424460E-02, -2.62950370E-02, -2.83122559E-02,
				        -1.77932482E-02, -1.25955734E-02,  2.05423080E-02,
				        -2.88950962E-04,  4.53118348E-03,  1.68695301E-02,
				        -1.09912841E-02, -9.03232012E-03, -1.32764136E-02,
				         1.22520541E-02,  2.54415921E-02,  3.97103310E-03,
				        -9.79305045E-03, -8.24236178E-03, -1.74406995E-02,
				         1.12797461E-02, -1.66131575E-02, -4.14193892E-03,
				        -1.82754761E-02, -2.98048528E-02, -3.98024599E-02,
				        -1.39543875E-02,  3.31131170E-03, -5.04763631E-03,
				        -3.56333087E-03, -1.67934298E-02, -1.46297116E-02,
				        -1.66805643E-02,  3.25661888E-03,  3.18722941E-02,
				        -2.10914261E-03, -2.14882077E-02,  2.00231626E-02,
				        -1.56933553E-02,  8.65513214E-03, -6.94681354E-03,
				         1.27385920E-03,  5.36065336E-02, -1.18060922E-02,
				        -9.13869776E-03,  5.79392946E-03, -3.25798371E-04,
				        -6.45245699E-03, -1.08136213E-02,  9.22542455E-03,
				         1.67966751E-02, -1.48951080E-02, -1.78012995E-02,
				         2.85737254E-02, -2.22843196E-02,  1.11577218E-02,
				         6.86447051E-03, -1.73135144E-02,  1.18645923E-02,
				        -1.72719997E-02, -1.71457893E-02, -2.17041441E-02,
				         1.29830398E-02, -7.01353198E-03,  1.69583775E-02,
				        -1.27280985E-02,  9.49951022E-03,  2.19785915E-02,
				        -1.39488496E-03, -1.76171422E-02, -5.42016691E-03,
				         1.95807251E-02,  1.15233132E-02, -6.06508850E-03,
				        -2.72490079E-02,  1.11366270E-02,  2.54893246E-02,
				         2.56594976E-02,  6.74882257E-03, -3.07438246E-03,
				        -1.22372695E-02, -9.07889164E-03, -2.57816021E-02,
				         3.32485096E-02, -4.41338481E-04,  3.71525719E-02,
				        -1.13414301E-03, -2.54426545E-02,  2.90301613E-02,
				        -1.35867872E-02, -6.85488501E-03,  2.56944619E-02,
				         2.27500162E-02, -3.17397160E-02, -6.60740103E-05,
				        -1.70382326E-02,  8.39375703E-03,  2.82795765E-02,
				        -8.15193922E-03,  2.33745794E-02, -1.46023331E-02,
				         3.38102714E-02, -1.29069571E-02, -7.22693458E-03,
				         4.54931339E-03, -2.19230318E-02,  2.41855340E-02,
				        -1.66983853E-02,  9.55733027E-03, -2.01605549E-02,
				         1.62202291E-03, -1.31949971E-04, -6.11626146E-03,
				         7.51660268E-03, -1.74175746E-02,  2.36989191E-02,
				         3.14356853E-03, -4.37029200E-02,  3.12490103E-02,
				         6.98705456E-03,  2.41899295E-02, -2.78972726E-03,
				        -3.54625664E-02, -6.61808770E-03, -1.91883949E-02,
				        -7.34870650E-04, -7.48162261E-03,  3.18298716E-03,
				        -2.76153351E-02,  8.96563612E-04, -7.27501004E-03,
				         9.86478918E-03, -2.65886238E-02, -6.64157910E-03,
				         2.58749107E-02, -1.84504529E-02,  1.14639887E-02,
				         2.07109590E-02, -1.75567111E-04,  1.53989726E-02,
				         1.62349040E-02,  2.44909765E-02, -5.72504519E-03,
				        -1.96557329E-03,  1.24511168E-02, -1.17103422E-02,
				         6.35260365E-04, -1.10892570E-02, -3.64886194E-02,
				         5.08280292E-03,  2.64823000E-02, -5.91618156E-03,
				         1.27074833E-03, -7.15377437E-03, -1.17310480E-02,
				         2.06276427E-03,  1.66424180E-02,  3.45386305E-02,
				         1.28666900E-02, -1.51931025E-02, -2.23578779E-02,
				         2.02917026E-02,  4.96974625E-03, -9.67543526E-03,
				        -1.65046059E-02, -1.26084722E-02,  1.92063870E-02,
				        -3.79193100E-04, -2.19128395E-02,  1.35951678E-02,
				         4.76772151E-03, -4.66123195E-03,  9.39838097E-03,
				        -1.29204733E-02,  1.49844663E-02, -2.22772736E-02,
				        -1.41812239E-02, -2.15458649E-02, -6.63849232E-03,
				        -1.17977259E-02, -5.77813655E-03,  6.78021997E-05,
				         8.69069410E-03,  2.24713669E-03,  3.86778862E-03,
				         2.49390009E-02, -4.16322757E-03, -2.29232131E-02,
				         1.48379044E-02,  2.86239219E-02,  2.83226142E-03,
				         1.30545171E-02, -1.02793401E-02,  2.74616259E-03,
				         9.89436001E-03,  5.88613902E-03, -8.45444402E-03,
				         2.54094308E-02,  2.64112529E-03,  1.44450942E-02,
				         6.41623510E-03,  1.35169664E-02,  1.45764271E-02,
				        -3.45063829E-03,  1.30284767E-02,  3.35741565E-02,
				         3.11859989E-02,  1.19416372E-02,  2.61725597E-02,
				        -2.05133787E-02,  2.29016617E-02,  1.08078807E-03,
				        -2.80054699E-02,  2.45506474E-03,  1.51523477E-02,
				        -1.09858129E-02,  3.01806650E-02,  2.09405689E-02,
				        -1.99630676E-02,  1.56858909E-02,  1.61511715E-03,
				        -8.71769071E-03, -5.01869047E-03, -6.95240941E-03,
				        -1.90223697E-02, -7.06586348E-03,  1.06776999E-02,
				         2.23491695E-02,  2.26251982E-02, -8.99393837E-03,
				        -1.88879279E-03, -1.35062200E-02,  1.60517470E-02,
				        -2.58856167E-02, -2.12929100E-02, -9.95246311E-03,
				         3.84072360E-03, -5.13687543E-03,  4.54815720E-04,
				         6.35977405E-04,  3.63875971E-03, -1.62218022E-02,
				        -5.34719063E-03,  8.94270520E-03,  4.32730140E-03,
				         1.69983740E-02, -1.16758930E-02,  1.39770100E-02,
				         2.28874777E-02, -2.30715060E-03,  4.05786185E-03,
				         3.46917114E-03,  8.29646408E-03,  5.95421312E-03,
				         2.29203306E-02,  7.93363776E-03,  1.34066006E-02,
				         5.15806969E-03, -1.63345298E-02,  6.63642284E-03,
				        -3.73729818E-03, -9.89682029E-03, -1.40240485E-02,
				        -1.07236954E-03, -9.70249840E-03,  3.18446086E-02,
				         2.48634428E-02, -4.22542622E-03,  1.09847262E-02,
				         1.80674160E-02, -2.91898417E-03,  2.87790095E-02,
				         1.42741755E-02, -1.75985435E-03, -2.82350261E-02,
				        -1.52475049E-02,  4.84919417E-03, -6.94188068E-03,
				        -4.53961363E-04, -1.24041700E-02,  3.63296988E-03,
				        -7.23620599E-03, -2.44231340E-02, -5.42934496E-03,
				        -9.08444995E-03, -2.42931231E-02,  2.21321976E-02,
				        -1.39869157E-03, -5.15342297E-03,  1.16191710E-02,
				        -1.29851192E-03,  1.18733120E-02, -2.31533986E-02,
				        -1.62465809E-02,  8.42656571E-03,  2.32392552E-02,
				         4.05710099E-04,  3.36116165E-03, -1.29662386E-02,
				        -5.80900330E-04, -1.11261169E-02, -2.47919864E-03,
				         1.12888631E-02, -3.13277921E-02,  3.29270486E-03,
				        -1.26522154E-02, -1.01281749E-02,  1.76328699E-02,
				         4.55847566E-03,  1.44898713E-02, -2.77411983E-02,
				        -6.37240699E-03, -7.23510790E-03, -9.28616942E-03,
				         6.80651993E-03,  1.38310851E-02, -1.73934102E-02,
				        -1.52238960E-02, -1.96218091E-02,  1.78656899E-02,
				        -8.14153697E-03, -1.73444880E-03, -5.25196054E-03,
				        -1.51771893E-02,  5.74983967E-03,  5.92185832E-03,
				         1.45576820E-02, -3.57199824E-03, -4.59897252E-03,
				        -9.28121198E-03,  2.31894466E-02,  1.57289823E-02,
				        -7.34950905E-04,  1.00611659E-02, -9.20888693E-03,
				         3.19276805E-02, -9.20414825E-03, -6.10248961E-03,
				        -5.94484288E-03,  2.64954821E-02,  2.17311433E-03,
				         1.67878479E-02, -1.79896052E-03, -1.90498028E-02,
				         1.20707132E-02, -9.96436951E-03, -2.06519403E-02,
				        -6.62151831E-03,  9.78309317E-03,  2.74419770E-02,
				        -2.16859141E-02, -3.44686137E-02,  1.45019868E-02,
				         4.64843268E-03, -8.93942279E-03,  6.51402744E-03,
				         1.13789898E-02,  2.97357737E-02, -2.08473104E-03,
				         1.99838624E-02, -7.16121574E-03, -8.00395482E-03,
				         6.53325633E-03, -1.74321441E-02, -2.04826697E-02,
				         1.49068535E-02, -3.07556874E-02,  1.70241039E-03,
				        -5.15186306E-03, -5.94576521E-03, -2.08167017E-02,
				        -3.19174078E-02, -1.03207334E-02, -1.83264681E-02,
				        -6.69884327E-03,  1.19270941E-03, -1.16932639E-02,
				        -1.69022716E-02,  4.44483808E-03, -1.19794210E-02,
				        -1.51061214E-02, -4.75023208E-03,  4.33331454E-03,
				         3.28663174E-02,  2.50246341E-02, -1.97878975E-02,
				        -2.08176866E-02,  9.35346699E-04,  8.52260365E-03,
				        -2.06288782E-03,  3.38147778E-02,  1.84407444E-02,
				         2.54455785E-02, -6.66160288E-03, -1.40810489E-02,
				        -1.68701140E-02, -1.87411782E-03, -1.97731773E-02,
				        -1.00517236E-02, -6.88636114E-03,  1.46027344E-02,
				        -7.60677052E-03, -2.21083488E-02, -7.17990077E-03,
				         2.82513967E-03,  8.62480480E-03, -1.45772408E-02,
				         9.98286982E-03,  2.15264399E-02,  7.48277079E-03,
				         3.60103195E-03, -7.15307422E-03, -9.63516548E-03,
				        -3.18522750E-02,  9.32533583E-03, -5.62080876E-03,
				         2.22350115E-03,  7.73823396E-03, -1.23781583E-02,
				         1.57498191E-02,  1.60680390E-03,  2.33480708E-02,
				         2.50411724E-03,  4.93572847E-03, -4.36758983E-03,
				         2.29365478E-02, -3.29272779E-02, -8.41975000E-03,
				        -4.74924958E-03, -2.40055825E-02, -1.24643195E-02,
				        -3.39762974E-02,  2.86646102E-03, -2.20357502E-02,
				         5.71730072E-03, -4.21863515E-03, -1.32053540E-02,
				        -2.43656586E-02, -1.07905318E-02,  4.76823011E-03,
				        -2.11150802E-03,  1.02952480E-02, -1.25043333E-02,
				         2.49603397E-02, -3.85115470E-03, -1.33675231E-02,
				         2.04001274E-02,  2.10864836E-02, -1.52693463E-03,
				        -7.67546496E-03,  1.40574400E-02, -1.40483483E-02,
				         1.45550817E-02, -2.17790044E-02, -1.36853248E-03,
				         1.88780392E-04,  1.87428598E-02, -2.86710424E-02,
				         3.54373160E-03, -1.89537749E-03, -1.21523104E-04,
				        -1.38733678E-02, -2.04566237E-02, -7.33606399E-03,
				        -3.98011409E-03,  2.30364652E-02,  1.61287431E-03,
				        -2.78834076E-04,  1.08966215E-02, -2.53651594E-02,
				         1.11340676E-02,  1.40948193E-02,  1.40871695E-02,
				        -5.41645671E-03, -1.94905730E-02, -1.55158135E-02,
				         3.68894645E-03,  8.17889544E-03,  1.99003542E-02,
				         2.36521361E-02,  1.34444059E-02,  4.21179661E-04,
				         4.04311762E-03, -3.77493819E-03,  1.64402062E-02,
				         9.16443306E-03,  3.25288047E-03, -1.97308592E-02,
				         1.62440733E-02, -2.39334016E-02,  1.91784961E-02,
				         1.52126594E-02, -2.49375507E-02, -8.87216777E-04,
				        -1.95696284E-02, -2.39474168E-03,  8.66562258E-03,
				        -2.26714247E-03, -2.15042083E-02,  4.10122989E-03,
				         3.92597424E-03, -5.56996111E-04, -1.64785792E-02,
				        -5.54188967E-03,  3.98805189E-03, -2.42773401E-03,
				         3.28042607E-02,  3.89662755E-03, -3.35706511E-03,
				         7.39532491E-03, -1.73515365E-02,  6.41640845E-03,
				         2.50790314E-02, -1.38534897E-02,  4.51100383E-03,
				         1.18412510E-02, -2.65692439E-02,  2.55418571E-02,
				        -1.64258998E-02, -5.28362136E-03,  5.81463810E-03,
				        -3.82576616E-03,  1.24359638E-02,  2.21819967E-03,
				         8.77903050E-03,  9.93783068E-04,  2.28083604E-02,
				        -3.15972524E-02,  5.45671049E-03, -4.89306543E-03,
				        -1.51343042E-02, -1.28986925E-02, -9.22834499E-03,
				         8.82163404E-03, -1.41543935E-02, -2.72209828E-03,
				         4.18326037E-03, -1.83083943E-02,  1.72897266E-02,
				         3.75818390E-02, -1.05965359E-02,  1.41583075E-02,
				        -5.00709947E-03,  8.20534550E-03, -3.00774960E-03,
				         3.43338433E-02, -5.26417372E-03,  1.22986791E-02,
				         9.30572033E-03, -1.70430590E-02, -3.38866778E-02,
				         8.92209242E-03,  1.30930630E-02, -8.50347244E-03,
				        -1.01026730E-02,  1.52844023E-02,  1.31797013E-02,
				         1.48802779E-02,  3.97695626E-03, -1.23897026E-02,
				        -1.91995966E-02, -3.11854420E-02, -1.06841739E-03,
				         2.98033084E-02,  7.29983164E-03, -1.33868062E-03,
				        -2.39100732E-02, -1.05797387E-02, -1.09902836E-04,
				        -3.62910044E-03,  1.40781543E-02, -2.70030319E-03,
				         1.08605248E-02, -1.99218787E-03, -3.03951809E-03,
				         1.94981753E-02, -1.18612316E-02, -4.58535368E-03,
				        -2.03073882E-02,  1.37805900E-03,  1.66451148E-02,
				         1.05698227E-02,  1.13703050E-02,  1.63116759E-02,
				         9.72538163E-03,  1.16531302E-02,  6.32197633E-03,
				        -1.54490927E-02,  8.12200810E-03,  1.46504650E-02,
				        -1.41159706E-02,  3.51882662E-03,  1.67629271E-02,
				        -6.04305010E-03, -2.08141028E-02,  8.33998160E-04,
				         2.47120906E-02, -1.44655320E-02, -1.79552581E-03,
				        -1.19595982E-02, -5.82778173E-03,  3.50687244E-03,
				         2.28407920E-02, -1.13934304E-02, -1.13215361E-02,
				        -1.37632101E-02, -1.73393327E-02, -2.40792424E-02,
				        -1.35219165E-02, -1.74871199E-03,  4.52175416E-04,
				         1.82274170E-02, -1.30230806E-02, -1.23295482E-02,
				        -1.20266210E-02,  2.98377706E-03, -2.65164428E-03,
				         1.20135753E-02, -1.24736750E-02,  1.40995910E-02,
				         1.45598008E-02, -4.19327751E-03, -9.97008405E-03,
				         2.75592632E-03, -1.25338681E-02,  3.09829354E-02,
				         2.04513227E-03,  1.23375276E-02, -2.00541198E-02,
				        -2.74523456E-02,  1.06212863E-02,  7.80778798E-03,
				        -1.19298196E-02, -9.11669675E-03, -1.07241197E-02,
				         3.43745711E-03,  1.43131347E-02, -2.43074891E-02,
				         7.40319330E-03, -1.38257668E-02, -8.38257651E-03,
				        -2.67160875E-03, -2.12936415E-02,  4.43252027E-02,
				         3.77912452E-02,  1.16697995E-02,  1.01910537E-02,
				        -1.64932555E-02,  3.70751912E-02,  6.45012132E-05,
				        -2.05005312E-03,  1.86453390E-02,  3.93878646E-03,
				        -1.24254571E-02, -3.62446746E-03, -6.14363610E-03,
				         8.14081483E-04,  8.47397022E-03,  8.03135245E-03,
				         2.01259924E-02, -2.62003059E-04,  1.47194861E-02,
				         2.65308941E-02, -1.94477703E-02,  1.09075814E-02,
				        -1.69742350E-02, -2.37008859E-02,  2.44888435E-02,
				         1.75584095E-02,  7.92366994E-03, -7.59783268E-03,
				         2.32284350E-02, -2.15467769E-02,  8.38856359E-04,
				         7.33840789E-03,  1.99089726E-02, -2.40409938E-02,
				        -4.80281778E-02,  1.62478032E-03,  4.78622129E-03,
				         2.51915133E-03, -1.39280048E-02, -7.38212056E-04,
				        -2.42893964E-02,  6.43745750E-03,  1.37629670E-02,
				        -1.15290079E-02, -3.15149811E-02, -2.21590963E-03,
				        -3.31185474E-03, -1.39416911E-03,  2.00651820E-02,
				         2.14622080E-03,  3.21772093E-02,  5.88488827E-03,
				        -1.72180539E-02,  1.75655796E-02, -1.56453842E-03,
				        -7.86490825E-03,  4.18062754E-03,  1.63241273E-03,
				        -2.45162645E-02, -1.35019037E-02,  1.79222862E-02,
				         2.53940546E-03,  9.87967425E-03,  1.58069130E-02,
				         2.78374731E-02, -1.00197573E-02, -1.11172841E-02,
				        -1.45401036E-02, -9.49473425E-03, -1.43159137E-02,
				        -4.33169384E-04, -1.82130034E-03,  8.93911300E-03,
				        -1.88481598E-02, -1.03377221E-02,  5.39637933E-03,
				         1.07699290E-02, -3.64601674E-02, -9.59103888E-03,
				        -4.24181437E-03, -3.21212720E-02,  6.78356654E-03,
				         1.85235591E-02, -3.05806686E-02, -2.46645963E-02,
				         1.46659634E-02,  1.74890272E-02, -2.01998257E-02,
				        -1.55945823E-02,  9.97341729E-03, -3.87614085E-03,
				        -8.46012677E-03,  2.47183380E-02,  4.46624079E-03,
				        -2.86227795E-02,  3.74474175E-03, -2.21150778E-02,
				         1.13444320E-02,  1.51711811E-02,  6.62796802E-03,
				         1.42794653E-02,  3.05089967E-02,  1.12089483E-02,
				        -6.07826069E-03, -1.72090147E-02,  3.21398244E-03,
				        -1.62966679E-02, -2.26952317E-02, -7.44007292E-03,
				        -2.79074988E-02, -2.05828343E-02,  7.66842824E-03,
				        -7.61748107E-03, -4.93196530E-03, -5.73873672E-04,
				        -3.07809574E-02,  2.77696231E-03, -3.33902647E-04,
				        -9.85906340E-04,  5.34766922E-03, -3.40579901E-02,
				         2.96409437E-02, -4.85989065E-03, -2.24715015E-02,
				         1.53335207E-03, -1.99884153E-02,  7.68211514E-04,
				         8.39949337E-03, -2.07657399E-02,  1.30113661E-02,
				         1.96509627E-03,  5.38092072E-03,  6.20531036E-03,
				         7.89215047E-03,  1.72188983E-02,  1.32862150E-02,
				         7.38696457E-03, -1.21223700E-02,  4.17658447E-03,
				        -8.91242881E-03, -2.29685355E-02, -8.79169422E-04,
				        -1.45778242E-02,  1.75323996E-02, -8.53677745E-04,
				         4.53096867E-04,  1.18763041E-02, -6.84329778E-03,
				        -4.24425121E-03,  1.79090145E-02, -2.18966252E-02,
				        -1.37180296E-02, -2.35777157E-03,  1.20183773E-02,
				         3.63210327E-03, -1.82776828E-02, -1.46609040E-02,
				         2.62913313E-02,  4.62089086E-03, -9.85731212E-03,
				        -7.81001977E-03,  5.82219356E-02,  2.06893417E-02,
				        -2.58130551E-02, -7.40241014E-03,  1.10255211E-02,
				        -4.46834124E-03,  1.75222264E-02,  2.73786114E-02,
				        -5.16822470E-05,  4.30175431E-03, -2.80044789E-03,
				         1.34062595E-02,  2.32188839E-02,  1.43464949E-02,
				        -1.71324244E-02,  1.14425397E-02, -9.23986290E-03,
				         2.70431422E-02,  7.24905192E-03,  1.63331941E-02,
				        -5.41563772E-04, -8.20376558E-04,  6.50879184E-03,
				        -7.27505740E-04,  2.45303778E-02, -1.81337193E-02,
				         1.05387603E-02, -9.43716631E-03,  1.33143382E-02,
				        -2.81900413E-02,  1.99022847E-02, -4.96634570E-03,
				        -1.94208345E-02,  1.10829658E-02, -3.21878815E-03,
				         4.22312122E-03,  1.89943193E-02, -1.73055654E-02,
				        -1.16391368E-02,  1.07891607E-03,  8.65677250E-03,
				        -1.12105580E-02, -1.27256423E-02,  1.18603921E-02,
				         1.51145383E-02,  2.15520979E-02, -4.89198428E-03,
				        -4.06621099E-02,  7.94721515E-03,  1.15915219E-02,
				        -2.32316778E-02,  1.18171980E-03,  4.00650668E-03,
				         5.02717693E-03, -7.58844484E-03,  1.09016889E-03,
				         8.95888237E-03, -2.79709110E-02,  1.38926696E-02,
				        -5.96093693E-03,  1.16385601E-02, -1.11519651E-02,
				        -2.71067861E-02,  1.82601576E-02,  2.53407706E-02,
				        -2.93449878E-02, -2.04140890E-02,  1.17902325E-03,
				        -1.66350606E-02,  1.16831867E-02, -1.27740829E-02,
				        -8.28745186E-03,  3.03548232E-03, -3.43198765E-02,
				        -5.20930038E-03,  3.13500836E-02,  8.89823381E-03,
				        -1.58113598E-02,  1.60955556E-02,  3.20375915E-02,
				         1.96348300E-02, -9.37997053E-03, -1.05218971E-02,
				        -6.16637940E-03, -1.66105037E-02,  3.14950179E-04,
				        -1.59802513E-02, -1.39425988E-02,  4.81956755E-03,
				        -9.06676321E-03, -3.37014498E-03,  3.33326180E-02,
				         5.48889227E-03,  1.84565281E-02,  6.57677528E-03,
				         9.25565403E-03, -2.13132284E-02, -8.63460696E-03,
				        -4.23303670E-03, -7.11254942E-03, -3.28823524E-03,
				         2.21510748E-03, -3.58030573E-03,  1.05677213E-02,
				        -4.12973544E-03,  1.67065995E-02, -4.65224091E-04,
				        -9.59847267E-03, -1.98858806E-02, -1.22742823E-02,
				        -4.28963969E-03,  1.85026794E-02, -2.02615895E-02,
				         1.59097291E-02, -1.73491188E-03, -1.33183016E-02,
				        -2.09180264E-02,  8.31326766E-03, -3.01869951E-02,
				        -7.46148486E-03, -7.11663541E-03, -2.95977559E-03,
				         8.87546262E-03, -9.88303120E-03,  1.55965990E-03,
				        -1.93152998E-02,  6.54914011E-04,  9.23998574E-03,
				        -5.77947038E-03,  5.52950712E-03,  1.35621330E-03,
				        -5.60190148E-03, -1.26978443E-03, -3.31407703E-03,
				        -3.11206366E-02, -2.36696119E-02,  6.47359152E-03,
				        -3.29222963E-02,  1.77527691E-02, -2.23005230E-02,
				         1.07558973E-04,  7.14021704E-03, -1.03057273E-02,
				         1.78400963E-02, -2.16595063E-02,  1.38783659E-02,
				         2.03031981E-03, -2.61566131E-03,  1.54234695E-02,
				         8.12699457E-03, -1.90569357E-02,  2.17649845E-02,
				         1.54731691E-02,  1.26777997E-03,  2.16456137E-03,
				         2.05971531E-02,  2.56976826E-02,  9.32307358E-03,
				        -1.83866269E-02,  1.74150040E-03,  1.26031538E-02,
				        -1.32381620E-02, -1.90605063E-02, -2.99075028E-07,
				         1.57010585E-03,  5.65787564E-03,  1.89744474E-02,
				        -3.43016255E-02,  1.32729772E-03, -3.52359744E-03,
				        -2.03060299E-05,  2.36956973E-03,  1.56708414E-02,
				         8.47277614E-03, -1.12901949E-03,  1.12966652E-03,
				         1.26025651E-03, -2.36451971E-03,  2.02894341E-02,
				        -3.01672038E-02, -2.23775898E-02,  2.47523795E-02,
				         8.56518790E-03,  9.51575878E-03,  1.77454227E-02,
				        -3.17953448E-02,  2.20634790E-02, -1.84930918E-02,
				        -1.56489916E-02,  1.59471224E-02, -1.83632028E-02,
				         7.95243099E-03,  2.20284475E-02, -1.03626786E-02,
				        -9.63266497E-03,  1.02864053E-02,  1.36761657E-02,
				         5.07995027E-03, -2.50433115E-02,  2.48242908E-02,
				         9.44693041E-03, -3.70710787E-02, -1.43820301E-02,
				        -1.68282543E-02, -1.24322519E-02,  3.66448915E-03,
				        -1.14711505E-02,  1.88762981E-02,  1.70017768E-02,
				         8.96964069E-04, -1.67761692E-02, -1.97066951E-04,
				         6.06610802E-03,  1.78613051E-02, -7.52558176E-03,
				         9.32740253E-04, -1.58033006E-02, -7.55634563E-03,
				         1.79555497E-02,  2.47311924E-02, -5.68170994E-03,
				        -4.35784221E-03, -1.21876297E-02, -2.40899298E-02,
				         5.55156931E-03,  7.31138431E-03,  9.22061761E-03,
				         3.17087035E-04,  7.95683081E-03,  2.31014877E-03,
				         1.92644602E-02,  5.59319968E-03,  2.24637378E-02,
				         1.64041996E-02,  5.23073104E-03, -1.96972623E-02,
				         7.70473893E-03,  4.68675785E-03,  2.96783210E-02,
				         1.11900261E-02, -1.79572992E-02, -1.27765763E-02,
				         1.46980563E-02, -3.33331297E-03, -1.92026564E-02,
				         7.36468691E-03,  7.32515820E-03, -2.21650297E-03,
				         1.31236785E-02, -1.97247697E-03,  2.88652919E-02,
				        -1.75161970E-02,  1.38805948E-02,  1.50661461E-02,
				         1.95211522E-02, -2.22802477E-03, -6.80095589E-03,
				         2.68232253E-02,  8.29553674E-03, -9.48514080E-03,
				         1.27352346E-02,  2.44729182E-02,  1.01234478E-02,
				        -1.16454890E-02,  1.49748391E-02, -2.44026156E-02,
				         1.18826485E-02,  1.49263121E-02, -3.76963861E-03,
				         4.00466644E-03,  1.96523091E-03, -8.70254693E-03,
				        -1.36761407E-02, -4.76084985E-03, -1.00543806E-02,
				         2.32479397E-02, -2.15331459E-02,  2.78125246E-02,
				        -3.98291110E-03, -1.24714296E-02, -8.75917774E-03,
				        -1.65610863E-02, -3.21036266E-02,  1.25576295E-02,
				        -2.74702666E-03, -1.33809366E-02, -2.06206908E-02,
				        -8.95820951E-03, -1.98386503E-02,  2.00646860E-02,
				        -2.98637156E-02, -1.51050334E-02, -1.39315221E-02,
				         7.14334343E-03,  3.72205186E-03, -2.45163955E-03,
				        -3.06920230E-03,  5.97819295E-03, -1.27103884E-02,
				         7.18943953E-03, -2.10023727E-02,  8.06823327E-03,
				        -8.32591297E-03,  1.73172219E-02, -1.94851280E-02,
				        -7.50558676E-03, -1.32533171E-02,  1.43215691E-02,
				        -2.24504104E-02,  1.33608175E-02,  6.89490990E-03,
				         8.47125108E-03, -1.11359791E-02,  7.04455453E-03,
				         2.69982113E-02, -1.11802134E-02,  3.63501021E-03,
				        -4.38428929E-03, -1.75580398E-02, -1.33053980E-02,
				         7.88402434E-03, -1.01893194E-03, -3.86645771E-02,
				         7.92409269E-03, -5.25777665E-03,  1.39251624E-02,
				        -1.03518544E-02,  3.56555378E-02, -1.50844279E-02,
				         1.15675926E-02, -1.71752637E-02,  2.68570270E-03,
				        -1.82633364E-02,  1.92168802E-02, -5.90519772E-04,
				         2.28902714E-02, -1.78320557E-03, -2.57007167E-02,
				        -1.35544488E-02, -6.46364950E-03,  2.12601723E-02,
				         4.22272066E-02, -2.10345380E-03,  4.67677360E-03,
				         1.91037590E-02, -1.80974423E-02, -5.28306525E-03,
				         1.00981320E-02,  5.19676593E-03, -1.60131611E-03,
				        -1.55573194E-02,  1.37803105E-03,  1.08839130E-02,
				        -1.14092841E-02,  9.91146862E-04,  3.24295067E-02,
				         7.24425236E-03,  8.96874902E-03, -1.63985097E-02,
				        -8.79947616E-03, -5.31664405E-03, -1.33438178E-02,
				        -1.92760540E-02, -2.49487850E-02, -3.54262998E-03,
				         1.26131230E-02,  9.24918925E-03,  1.01740142E-02,
				         1.38654462E-02, -1.38313701E-02, -1.10103982E-02,
				        -4.03249512E-03, -1.43929789E-02,  3.46958051E-03,
				        -1.07963035E-02,  1.70310553E-02, -1.41225421E-02,
				         8.42376960E-03,  2.58448126E-02, -1.93536433E-02,
				        -9.04666941E-03, -1.23463976E-02, -1.69335696E-02,
				         3.75635122E-03,  7.43864788E-03, -1.17725845E-02,
				        -8.39679562E-03,  3.39579382E-03,  4.55422507E-03,
				        -1.77359111E-02,  3.56385259E-02, -4.04775617E-03,
				         1.02354436E-03, -1.01966876E-02, -4.34118348E-03,
				        -1.45736891E-02,  2.49990064E-02, -2.91621100E-02,
				        -3.34020294E-03,  1.00135403E-02, -2.54031822E-02,
				         6.72033193E-03,  2.01982704E-02,  4.29284993E-03,
				        -4.28182158E-04, -8.80041035E-04, -4.81355223E-03,
				         8.74690527E-03, -1.38799749E-02,  4.72509297E-03,
				        -5.59243315E-03, -9.42535248E-03, -1.83016794E-02,
				         1.02382280E-02, -9.49516171E-03,  1.66056975E-02,
				        -8.18895339E-04, -2.06647904E-04, -1.74289095E-02,
				        -1.57354868E-02,  8.31934224E-03, -1.80629663E-03,
				         5.93659629E-04,  9.96268596E-03,  7.84280925E-03,
				        -5.93984983E-03,  4.48664147E-02,  4.86894717E-02,
				         6.44182269E-03, -2.27811183E-02, -1.44377791E-02,
				         8.74582391E-03, -9.43277654E-03, -1.69111007E-03,
				        -3.16478353E-02,  6.34208968E-03,  1.84889836E-02,
				        -1.94098565E-02, -5.75476918E-03, -6.06045412E-03,
				        -3.92826967E-02, -7.85059985E-03, -9.32030034E-03,
				        -2.20905348E-02, -1.41592326E-02,  3.46817617E-03,
				         4.97600902E-03,  4.64514335E-03, -9.43415019E-03,
				        -1.32651027E-02,  1.86287408E-03, -6.44184258E-03,
				         1.56977265E-02,  1.78333570E-02, -7.74981397E-03,
				        -2.59677405E-02,  2.52534269E-03, -1.09342369E-02,
				         1.25303800E-02,  1.05686665E-02, -1.68146618E-02,
				         1.59433293E-02,  2.13590299E-02,  5.63248555E-03,
				         9.12738587E-03, -8.52666413E-03, -1.37901845E-02,
				         1.91749475E-02,  3.39746119E-03, -1.87239910E-03,
				        -1.50286461E-03,  1.14060709E-02, -3.77899951E-03,
				        -8.13416397E-03, -5.21509888E-03, -2.84862723E-03,
				        -7.93933100E-03,  9.91171740E-04, -7.99404843E-03,
				        -7.41040437E-03,  3.08363249E-02, -9.66846503E-05,
				         2.64632421E-02, -1.58977010E-02,  1.15750658E-02,
				        -1.06718754E-04,  2.61196558E-02, -7.51404397E-03,
				         2.76391711E-02, -9.54289102E-03, -2.69978617E-04,
				        -1.84297677E-02, -9.32736947E-04, -3.66132903E-03,
				        -1.77063651E-02, -2.93133689E-02,  1.35544524E-02,
				         7.27858558E-03, -1.13615268E-02, -2.09643823E-03,
				        -1.17564545E-02, -2.62536446E-03,  3.49299388E-03,
				         5.03162658E-03, -8.24100093E-03, -3.73958715E-03,
				         7.62106532E-03, -1.06792678E-02, -9.09735232E-03,
				         7.63343486E-04,  7.35855660E-03, -6.99610554E-03,
				         1.20775805E-02, -1.54223199E-03, -1.09757785E-02,
				         1.11337685E-03, -2.31996115E-02, -2.90828873E-02,
				         4.91652096E-03, -2.81862730E-02, -1.29864925E-02,
				         1.51749017E-02,  4.74586534E-03, -1.36847174E-02,
				        -6.44286014E-04, -2.28684614E-02, -1.81746005E-02,
				        -3.09530372E-03,  8.79691959E-03, -9.94829157E-04,
				        -1.70991400E-03, -1.06626302E-02,  8.41998242E-04,
				         1.19816851E-02,  1.69081295E-02,  4.90092444E-03,
				         1.55528216E-03,  5.19512992E-03,  7.86490716E-03,
				        -7.93760329E-03, -6.02594598E-03, -1.07213588E-02,
				        -1.01027358E-02,  2.91538570E-02,  1.19800774E-02,
				        -1.09405313E-02,  4.38841217E-04,  4.62221704E-03,
				        -1.64354613E-03, -1.53949346E-02,  2.23344997E-02,
				        -1.87548070E-02,  1.32254056E-02,  5.24380016E-04,
				        -1.30740904E-02, -2.98282146E-03, -2.92983594E-02,
				         3.90292817E-03,  1.08627850E-02, -8.61444696E-03,
				         4.15728688E-03, -3.94421571E-02, -8.78093719E-03,
				        -2.13199780E-02,  1.39351348E-02,  2.59041695E-03,
				        -1.21534672E-03, -3.42867742E-03, -4.25006285E-03,
				         1.18683080E-02, -1.67810377E-02,  1.41334268E-02,
				         1.04259799E-02,  1.58075022E-02, -5.98048538E-03,
				         1.64517259E-02,  1.51540271E-02,  6.62709977E-03,
				         1.70894297E-02, -7.35295935E-03, -1.62652560E-03,
				         2.06311977E-02,  3.10224715E-02, -2.61392308E-02,
				         1.42525637E-02, -2.01082692E-02,  2.84908171E-03,
				        -9.62384459E-03,  2.82770974E-03, -5.12941565E-03,
				         5.74745827E-03,  9.73379056E-03, -5.90541374E-03,
				         9.96243985E-03, -4.94943802E-03,  1.02995316E-02,
				         1.78889063E-02,  2.13856458E-03,  3.20300777E-03,
				        -2.85598034E-02, -1.25103308E-02, -1.00902848E-02,
				        -2.77787676E-03, -2.21584874E-02, -2.08010049E-02,
				        -1.51514446E-03,  2.98778016E-03,  1.51068249E-02,
				         2.20960957E-02,  8.06467496E-03, -6.00089545E-03,
				         1.06979303E-02, -1.27521458E-02,  3.02048729E-03,
				         2.75842977E-02,  2.27891212E-02, -5.14415417E-03,
				         1.47582474E-02, -6.47506558E-03, -1.00526321E-02,
				        -2.56230520E-02,  7.91951597E-03,  4.36713102E-03,
				         1.48974983E-02,  1.20515797E-02, -5.04537240E-03,
				         1.29222582E-02,  2.89952347E-02,  3.54955570E-02,
				         1.15058253E-02,  4.07674607E-03,  5.56766361E-03,
				         8.62273161E-04, -9.47380152E-03,  2.41560448E-02,
				         1.15423794E-02,  1.73162620E-03,  2.27453356E-02,
				         1.26890397E-02, -2.00567300E-02,  1.88786050E-02,
				        -6.92156425E-03, -2.10395280E-02,  4.10592926E-03,
				        -5.28408764E-03, -1.20872746E-02,  2.43102489E-02,
				         3.99680416E-04, -1.19239733E-03, -4.44498096E-03,
				        -6.54463801E-03,  2.43811451E-03, -5.47595426E-03,
				         5.01749392E-02, -1.69349416E-02,  1.34898734E-03,
				        -7.75574322E-03, -1.14515408E-02, -1.08442783E-02,
				        -1.28878306E-05,  1.40985959E-02,  1.83218768E-02,
				         1.04178047E-02, -7.00877630E-03,  2.95825843E-02,
				         2.73845808E-02,  2.70959607E-02, -7.75349898E-03,
				         9.38144571E-03,  1.07088363E-02,  8.77221194E-03,
				         8.68696837E-03,  8.15066088E-03, -4.97956636E-03,
				         1.86724928E-02,  2.12577006E-02,  9.75937686E-03,
				         5.99307542E-04,  5.94343105E-03,  1.92676289E-02,
				        -2.39711138E-03,  1.05680316E-02, -1.19841216E-02,
				         5.54035129E-03, -2.04119560E-02, -1.82254229E-02,
				         3.21336562E-02,  1.60041061E-03,  1.67370055E-02,
				        -4.23287579E-02, -4.21518139E-03, -3.31268654E-03,
				        -9.12728332E-03,  1.66198666E-03, -1.40202495E-02,
				         1.91784266E-02,  9.73639180E-03, -1.83164146E-02,
				         7.08526040E-03,  4.41183185E-03,  2.47419083E-02,
				         1.61003418E-02, -1.79895271E-02, -1.26260524E-02,
				         1.50583933E-02, -2.10704314E-02,  8.85525690E-03,
				        -1.10511482E-02,  7.41799964E-03,  7.92629149E-03,
				         5.43282438E-03, -1.21076476E-02, -1.22785827E-05,
				         1.85710949E-02, -3.33923248E-03,  6.52855738E-03,
				         2.53862831E-02,  2.92916796E-02,  2.38414780E-02,
				         1.78649866E-03,  1.12862938E-03, -3.25006819E-03,
				        -8.45209758E-03, -3.03712816E-03, -2.25230670E-02,
				         8.53039044E-03, -4.93797242E-03,  1.72515170E-02,
				         1.59020031E-02,  2.13838762E-02, -1.25460231E-02,
				        -4.00473486E-03, -1.17999123E-02, -2.46815191E-02,
				        -1.08720161E-02, -1.27767955E-02,  1.74126404E-02,
				        -4.30465817E-02,  7.72073468E-03, -4.19065896E-03,
				        -7.42211349E-03, -5.10343095E-03,  6.91630466E-03,
				        -1.75652681E-03,  3.68980580E-02,  2.58638864E-03,
				        -7.72059805E-03, -8.78467197E-03, -3.82431071E-03,
				         2.43666619E-02,  8.07819773E-03,  2.10047108E-02,
				        -2.02337929E-02, -8.08041582E-03,  6.28371393E-04,
				        -3.65638800E-03,  1.05305715E-02,  1.58556640E-02,
				        -6.21148584E-03, -4.52907553E-02, -1.48800725E-02,
				        -1.93257470E-02,  8.71513277E-03,  3.14954130E-02,
				         4.88276706E-03,  2.79809106E-02,  4.88738541E-03,
				         1.70922768E-02,  4.62527305E-03,  1.13209941E-02,
				        -1.48813414E-02, -5.28748726E-03,  2.31767216E-02,
				         1.40985770E-02, -2.17020160E-02,  1.63150190E-02,
				         1.89177908E-02, -4.77397122E-03,  4.77481684E-03,
				        -9.47235865E-03,  4.36855807E-03,  2.05657176E-03,
				        -6.48438866E-03, -1.10635606E-03, -8.90649893E-03,
				         1.03543405E-02, -1.04744718E-02,  5.00653232E-03,
				         3.94845631E-03, -1.27659686E-02, -6.71351499E-03,
				         4.46953594E-03,  2.09278402E-02, -1.04411080E-02,
				        -2.32554968E-03, -3.31824352E-03, -2.77470507E-02,
				        -2.71968192E-03,  1.14499140E-02,  1.18571604E-02,
				        -7.79615867E-03,  8.04486923E-03, -4.10622187E-03,
				         5.36394304E-03,  1.43913952E-02, -1.06759307E-02,
				         7.04603304E-03, -2.58924269E-02,  1.47662736E-02,
				        -2.46112722E-02, -1.46302892E-03, -3.41691282E-03,
				         1.29066175E-02,  2.75243402E-02, -3.48306792E-03,
				        -3.77254624E-04, -1.70787812E-02,  8.42319437E-03,
				         1.49976998E-02,  1.78664475E-02, -1.60331275E-02,
				        -1.40954195E-02,  1.35265567E-02,  1.42478774E-02,
				        -3.26050049E-02, -1.31900453E-02, -3.48103496E-02,
				        -3.42927239E-03,  1.72993835E-03,  5.04388154E-03,
				         6.53314133E-03,  9.87273443E-03, -2.00341633E-03,
				        -2.39955320E-02,  2.86735502E-03,  1.12674097E-02,
				        -2.25486920E-02, -1.55061586E-02,  1.83592304E-02,
				         2.50317883E-02, -7.75672609E-03, -2.07343348E-02,
				        -9.73987320E-03, -1.33848227E-02, -7.57703913E-03,
				         1.24066929E-02, -3.04840521E-02, -3.23933970E-02,
				         2.98581376E-02, -1.30866501E-02,  1.80407237E-02,
				        -2.93141687E-02,  1.29464813E-02, -2.25627318E-02,
				        -1.58965570E-02, -2.22404393E-02,  8.10727322E-03,
				        -1.67355680E-02, -1.60253193E-02,  1.00894750E-02,
				         2.41262312E-02,  6.31355974E-03,  3.69691905E-03,
				         1.18601692E-02,  2.57355415E-02, -4.22266378E-03,
				        -1.55463871E-02,  2.85208148E-02,  2.18938046E-02,
				        -1.93080913E-02,  1.22838999E-02,  6.12904341E-03,
				        -1.57130580E-03, -1.84316983E-02, -2.24614279E-02,
				        -9.08937074E-03, -1.61706480E-03,  2.51962734E-02,
				        -2.23686699E-02,  1.54534819E-02,  2.76365770E-03,
				         1.21763655E-02,  3.11793006E-02, -7.37440399E-03,
				         1.57026032E-03, -2.67557982E-02, -1.08725234E-02,
				         2.38811438E-02,  3.11957269E-02,  2.18874481E-03,
				        -1.29738976E-03,  6.77606996E-03,  4.19871934E-03,
				         3.47847740E-02, -1.61555478E-02, -2.67551896E-02,
				        -1.20408812E-02, -2.20162629E-02,  1.38801965E-03,
				         5.05490726E-04, -2.37223948E-02, -9.85780340E-04,
				        -4.94922607E-03,  3.31784969E-03, -1.03477559E-02,
				        -6.76392057E-03, -4.93585009E-03,  2.03498936E-02,
				        -1.82073002E-02, -9.50299366E-03,  6.36984574E-04,
				        -1.59885888E-03,  1.77508678E-02, -5.19925720E-03,
				         4.98541369E-03,  1.12838162E-04, -1.38232974E-02,
				        -5.23126769E-03, -9.03819010E-04, -1.29521196E-02,
				         4.01627538E-02,  2.98087573E-03,  1.59332126E-02,
				         2.56075109E-02,  3.08729776E-02, -2.85197811E-02,
				        -1.04323946E-02, -2.22628012E-02, -7.95635444E-03,
				        -5.97177120E-03, -2.32086474E-02,  1.71290919E-02,
				         1.95502519E-02, -1.14065330E-02,  1.00890743E-02,
				         1.31674550E-02,  9.86269582E-03, -2.17029427E-02,
				         3.77492126E-02,  3.22190324E-02, -8.21630166E-03,
				        -7.79133131E-03, -2.12138886E-02,  9.08968144E-03,
				        -5.24632135E-04,  7.07173540E-03, -7.05791611E-03,
				        -2.02060580E-02, -1.55026421E-02, -1.01613628E-02,
				         1.81713605E-03, -4.01268578E-03,  1.16184588E-02,
				         1.01905117E-02,  1.41010054E-02,  4.25970358E-03,
				         2.85798060E-02,  3.30690395E-02, -8.14529545E-03,
				        -1.69513554E-02,  1.15599724E-02,  8.80188536E-03,
				         1.21705317E-02, -8.24522794E-03, -1.64155094E-02,
				        -2.85355379E-03,  2.67038636E-02, -3.60359964E-03,
				         1.05162126E-02, -9.17318679E-03, -1.41728187E-02,
				        -1.28943211E-02, -3.54761472E-02, -1.07724670E-02,
				         1.34231628E-02,  2.22093641E-04, -1.36400437E-02,
				        -1.32703712E-03,  3.61443378E-03,  1.26672748E-02,
				        -1.18674973E-02, -5.83990919E-04,  4.81884313E-03,
				         1.59253048E-02, -1.99412239E-02, -5.18176081E-03,
				        -2.85322194E-02, -1.35371010E-02,  4.88115347E-03,
				         2.62888319E-02, -3.99413578E-03, -6.64392183E-03,
				        -1.59251401E-02, -2.15679551E-02, -1.38162052E-02,
				         9.58454130E-03, -3.31044945E-02, -3.55354582E-03,
				        -1.11321870E-02, -1.66515178E-02,  3.33219778E-03,
				        -1.28502661E-02, -1.74041307E-02, -9.72710286E-03,
				        -2.45561649E-02, -2.61416560E-02, -1.30048253E-02,
				        -1.83015327E-02,  1.34379512E-02, -1.81506908E-03,
				        -1.86650451E-02, -2.14865100E-03,  1.04490276E-02,
				         8.55273551E-03,  2.63776425E-02, -1.30383144E-02,
				         1.96356456E-02, -6.21894330E-03,  8.10275969E-04,
				        -1.38989975E-02, -1.65914337E-02,  2.80106050E-02,
				         2.90704029E-02,  4.27131940E-03,  1.26636941E-02,
				         2.91174190E-03,  2.43293821E-02, -2.82188709E-02,
				         2.51034445E-02, -2.66086446E-02,  2.45806577E-02,
				         3.30900314E-02, -2.00338399E-02, -1.14543383E-02,
				        -5.15642008E-04,  1.25413025E-02, -3.42882924E-02,
				        -2.91977471E-03,  1.01258980E-02,  1.18462115E-02,
				         9.72629911E-03, -7.36196256E-03, -6.88615291E-03,
				        -9.23977786E-03,  3.90078331E-02, -1.64520112E-02,
				         3.27045585E-03, -5.28109786E-03, -3.04764726E-03,
				         4.69893272E-03, -9.55877072E-03,  1.92691321E-04,
				        -7.34810647E-03,  1.11028207E-02, -6.71246174E-03,
				         6.33831752E-04, -2.31416590E-04,  2.91070604E-02,
				         2.86984646E-02, -1.89617979E-02, -1.27549501E-02,
				        -2.32622348E-02, -6.49713632E-03, -2.23577497E-03,
				        -1.19616304E-02,  4.45805819E-03, -9.10505761E-03,
				        -1.82487357E-03, -3.02572373E-02,  8.95608699E-03,
				        -1.64199480E-02, -8.11071439E-03,  8.60925507E-03,
				        -2.34813288E-02,  1.50445545E-02,  3.14954971E-03,
				         3.03113287E-03, -2.29506784E-02, -2.18790142E-02,
				         3.05330501E-05, -5.61570917E-03, -1.00166034E-02,
				        -2.93757962E-03, -1.49069443E-02, -3.35832347E-03,
				         7.52966828E-03, -1.48329920E-02, -1.41211690E-02,
				        -2.95303931E-03, -8.15238865E-03, -2.26360296E-03,
				         2.16938285E-05, -2.79800234E-02,  2.36653065E-02,
				        -4.13169166E-03,  1.12349952E-04, -1.97560705E-02,
				        -5.08698669E-03, -5.85448520E-03, -1.73045933E-02,
				        -4.67940017E-03, -2.53617059E-02,  3.43615177E-02,
				         2.22041125E-03,  6.32255675E-03,  3.26464251E-03,
				        -1.37937599E-02, -2.57974775E-05, -4.27432431E-02,
				        -1.70812698E-02,  7.87112724E-03, -5.26728128E-03,
				        -3.51575507E-02, -2.38235078E-02,  1.21308719E-02,
				        -2.86258907E-02, -1.74879959E-05, -2.95480467E-02,
				         1.29446319E-02,  7.36178698E-03,  1.34578169E-02,
				        -6.05535911E-03,  5.01137809E-03,  2.62948473E-03,
				        -2.11614939E-02,  6.29277016E-04, -1.15603904E-02,
				        -1.97750689E-02, -1.86702691E-02,  1.66844909E-02,
				         1.22699193E-02, -6.48073863E-03, -3.29517205E-02,
				         8.50158510E-03,  1.74393522E-02,  9.25699823E-03,
				        -4.57877272E-03, -2.27965060E-02, -2.04772493E-03,
				        -1.46383275E-02, -1.30132111E-02, -1.93719125E-03,
				        -1.06245867E-02,  6.16227831E-04,  1.36910972E-02,
				        -2.41090598E-02,  3.53637613E-03,  5.79842521E-03,
				        -5.06223806E-03, -3.25565264E-02, -1.43397670E-02,
				         3.50711915E-02,  1.06136853E-02, -1.93115016E-02,
				        -6.56160842E-03, -7.54723503E-03,  9.60304445E-04,
				         4.06173271E-03,  1.19500504E-02,  1.37568081E-03,
				        -1.42738586E-02,  1.34154159E-02, -1.26292358E-02,
				         7.92748819E-03,  2.78173959E-02,  1.49105692E-03,
				        -2.67052044E-02,  9.08032926E-03,  5.63921781E-03,
				        -1.72320301E-02,  9.19341579E-03,  2.52320299E-04,
				        -1.74781047E-02,  2.13072810E-03, -3.26675815E-03,
				        -2.93532905E-02,  2.89935012E-03, -2.55672567E-02,
				         6.79495669E-03, -2.31169138E-02,  6.82810011E-03,
				         1.08655075E-03, -2.39610415E-02,  6.64855343E-03,
				         1.57435643E-02, -2.50783344E-02, -1.53067440E-02,
				        -1.84148244E-02, -6.48853447E-03,  2.07909066E-02,
				        -1.99142744E-03,  2.00516003E-02, -5.12095720E-03,
				         1.78660628E-02, -1.16530263E-02, -8.21838686E-03,
				        -2.78798292E-02,  1.05266460E-02, -4.61822039E-03,
				        -9.52829368E-03, -1.82727581E-02,  7.48836650E-03,
				         3.08180025E-03, -1.74586150E-02,  1.95826103E-02,
				        -1.94297501E-03, -4.63024086E-03,  2.67849900E-02,
				        -3.12035047E-03, -3.54850009E-03, -6.49908844E-03,
				         3.31100864E-02,  3.30672579E-02,  1.48236048E-02,
				        -3.33315006E-03, -1.06983212E-02,  6.12505029E-03,
				         1.26043608E-04, -2.51866435E-02,  1.74302309E-02,
				        -8.32890789E-03,  9.83600988E-03, -2.25408152E-03,
				        -1.50234172E-03, -2.14004566E-02, -1.41223761E-02,
				        -1.06009595E-02, -7.16538991E-04,  4.89583642E-03,
				        -4.87085239E-03, -1.22904673E-02,  1.60269874E-02,
				        -5.29756641E-04,  7.06103734E-03,  5.47298876E-03,
				        -1.41288144E-02, -1.02839272E-02,  1.28995232E-02,
				         3.01284667E-02,  7.04245439E-03, -1.08927604E-02,
				         1.87451403E-02, -2.59756954E-02, -1.35039794E-02,
				         1.94769000E-02, -7.06380266E-03,  2.33461696E-02,
				        -2.71491309E-02, -1.06193634E-02,  4.89332869E-03,
				         2.77676876E-03,  4.17165661E-03, -8.37938594E-04,
				        -1.01285712E-02,  1.51646853E-02, -1.05945465E-02,
				        -1.99385006E-02, -2.19479118E-03, -4.04837697E-02,
				         1.25629602E-02,  7.33020889E-03, -1.57452512E-03,
				        -1.11525938E-02, -2.85869076E-02, -2.73880013E-02,
				         1.02186445E-02,  1.10754635E-03,  5.48669055E-03,
				        -2.64501304E-03,  4.33400500E-03, -2.52254033E-02,
				         9.60717617E-03,  5.22348395E-03,  1.35469564E-02,
				         1.32364501E-03, -1.62384321E-02,  6.98911260E-03,
				        -1.87659301E-02,  1.50342219E-02,  4.60206061E-03,
				        -1.07096106E-02,  5.35138671E-03,  2.44921145E-02,
				        -1.57155160E-02,  2.60363061E-02,  1.15626522E-03,
				         1.69150804E-02,  4.16356488E-03,  7.13284610E-03,
				         2.77205710E-02,  2.49977899E-03, -2.66749707E-03,
				         2.53157227E-03,  1.67661335E-02, -3.72304882E-03,
				        -1.47823792E-02, -3.83960151E-03,  8.52201207E-03,
				        -6.22423773E-04,  6.07290985E-03, -1.21749750E-02,
				         2.09028914E-02,  5.64921457E-03,  5.66040291E-03,
				         3.87146799E-05,  9.19838591E-03, -1.65314491E-03,
				        -2.66577029E-03,  1.21047267E-02, -5.06010929E-03,
				        -1.18546068E-03, -2.20085964E-02, -3.89105967E-03,
				        -1.97835011E-02, -1.48532131E-02, -1.06148438E-02,
				         2.95273470E-02,  1.69702643E-02,  4.67497885E-03,
				         4.54530543E-03,  1.81136950E-02, -3.27330164E-02,
				        -1.97222919E-02, -1.30031804E-03, -1.25474732E-02,
				        -2.06209232E-02, -7.00535058E-03,  9.37153258E-03,
				         1.43948395E-02, -1.28424860E-03,  4.06178046E-03,
				         9.32176647E-03, -4.09129133E-02,  9.68596811E-03,
				        -3.28896911E-02,  4.67943409E-03,  8.10452057E-03,
				         8.97552544E-03, -9.48397470E-03,  8.91352936E-03,
				         8.76774362E-03,  1.47301601E-02, -2.48080021E-02,
				        -1.33177024E-02,  4.85699498E-03, -3.74152667E-03,
				         1.04093544E-02,  7.00266674E-03,  2.99877008E-03,
				         6.51186243E-03,  2.38870120E-03, -1.39831741E-02,
				         7.87109173E-03, -1.03500234E-02,  2.39187472E-02,
				         1.62402635E-02, -1.11149748E-02,  2.07168509E-03,
				        -2.27111986E-02,  1.11815652E-03,  2.38441258E-02,
				         2.70109031E-03,  1.42814498E-02,  1.88166217E-02,
				         1.70122789E-03,  1.71453397E-02, -3.77073688E-03,
				         3.26827613E-03, -2.41268445E-02, -1.18533647E-02,
				        -5.88693828E-03,  8.18450446E-03, -1.77988546E-02,
				         2.08651407E-03, -2.52881415E-02, -6.52310562E-03,
				        -1.11768802E-02,  2.46435941E-02, -1.21659834E-02,
				        -2.76888461E-03,  1.37046453E-02, -1.15469919E-02,
				         6.31535819E-03, -2.07976096E-03, -1.47075103E-02,
				        -1.23713851E-02,  1.13627238E-02, -9.71699246E-03,
				         1.14577985E-02,  1.58852773E-04, -1.36918839E-02,
				        -1.50152810E-03,  3.27505017E-02,  5.94414296E-04,
				        -1.26069799E-02,  4.79066674E-03, -6.34842131E-03,
				        -2.22116769E-02,  5.50856769E-03, -1.60419018E-02,
				         1.90559369E-02,  1.70845483E-02,  1.01898155E-02,
				         5.20336271E-05, -1.39406436E-02,  4.18180512E-03,
				        -1.22425262E-02,  1.64461616E-02, -2.18839281E-02,
				         2.23431336E-02, -1.99256105E-03, -1.11777000E-02,
				        -1.82668699E-02,  8.53634972E-03,  6.27933787E-03,
				         1.12195005E-02, -2.01066083E-03, -9.40440690E-03,
				         1.21546436E-03, -1.92898055E-02, -2.98401556E-03,
				        -1.34382390E-02,  1.96271290E-02,  6.96643210E-03,
				        -6.70859693E-03, -8.40406012E-03,  1.60796479E-02,
				        -1.01526864E-02, -2.57979018E-03,  8.48731694E-03,
				        -1.23257942E-02,  1.93941546E-02,  3.66800999E-03,
				         2.43873300E-02, -2.05000099E-04,  4.32852102E-02,
				         6.10401492E-03,  2.55856738E-03, -2.09833680E-02,
				         3.80715659E-03, -2.18984972E-02, -4.74771792E-03,
				        -5.25636131E-03,  1.37913698E-02, -5.00946120E-03,
				        -4.64049864E-03, -1.26286642E-02, -5.89742214E-03,
				        -9.06429259E-03,  2.80482052E-02, -1.36657226E-02,
				        -1.82944569E-02, -1.00496472E-02,  1.66660759E-02,
				        -3.06381231E-02,  2.14834460E-02, -1.48642485E-02,
				        -1.57803765E-02, -2.10894480E-02,  6.74887202E-03,
				        -1.12573549E-02,  2.21568860E-03, -1.12421266E-04,
				        -3.80250351E-02, -1.63452282E-03,  5.62505831E-03,
				        -2.03816913E-02, -2.12913464E-02, -1.71763495E-03,
				         2.40570596E-02,  2.20054476E-02,  2.64214472E-02,
				        -1.39390933E-02,  8.43265050E-03, -8.72113510E-03,
				         1.04117161E-02, -1.71121620E-03, -2.92477165E-02,
				         8.55856029E-03, -3.27366828E-02,  3.62607235E-02,
				         4.19922745E-02, -1.04838356E-02, -1.04201946E-03,
				         8.67167330E-04,  5.50954457E-03,  9.03361693E-03,
				        -2.61376700E-02, -1.63692190E-02,  1.28720638E-02,
				         6.61660321E-03, -1.05280255E-02, -2.09376066E-02,
				         5.44419644E-03, -6.80750043E-03,  1.50874350E-02,
				         1.64456478E-02,  1.06627449E-02,  4.77632681E-03,
				         4.20819096E-03,  1.35940085E-02, -1.16768398E-02,
				        -2.49945561E-02,  9.03240963E-03,  4.13350232E-03,
				         4.38101099E-03, -2.25968623E-03, -3.52712129E-02,
				         4.50263462E-02,  4.25123166E-02, -8.16695540E-03,
				         1.28019397E-02,  1.22213282E-03,  3.72204343E-03,
				         5.11630693E-03,  1.65545465E-02, -1.06484180E-02,
				         1.09806115E-02,  1.07124149E-02, -3.99885074E-02,
				         2.26976270E-02,  9.99009449E-03, -9.34552321E-03,
				         4.71719800E-04,  7.71402070E-03, -4.66796515E-03,
				         7.93203659E-03, -3.23153768E-02,  2.97049595E-03,
				         1.70656978E-02,  1.14381624E-02,  3.15995007E-03,
				        -1.25265398E-02,  8.76286493E-04, -1.88430576E-02,
				         1.75598414E-03, -3.05577080E-03,  7.56974684E-03,
				         2.13587604E-02,  1.31151272E-02, -1.33369258E-02,
				        -1.53612661E-02, -1.38631441E-02, -1.37753869E-02,
				        -1.65237864E-02,  3.09016775E-02,  1.99339097E-02,
				        -9.50159493E-03,  5.85940166E-04,  3.83894232E-02,
				        -2.80498015E-02,  5.88719755E-03,  3.10144078E-02,
				         2.09035992E-03, -8.89654788E-03,  1.95295062E-02,
				         3.50476566E-02, -3.11885417E-03,  1.83504829E-02,
				        -1.52283896E-02,  3.88862615E-03,  9.66868813E-03,
				        -7.27724390E-03, -8.51744451E-03,  9.62987549E-03,
				         1.35207584E-02, -1.66544570E-02, -9.67582017E-03,
				         6.44288614E-03, -2.42683860E-02, -1.61476016E-02,
				         4.95217638E-03,  1.24125479E-02,  4.05614665E-03,
				        -1.32443522E-03,  2.61699910E-02,  2.86227941E-03,
				        -8.42360795E-03, -3.25176792E-02,  7.96563524E-03,
				        -7.29840608E-03, -5.61123537E-03, -1.86813672E-03,
				        -1.36349510E-02,  7.18325093E-03, -2.29828393E-03,
				         4.11662751E-02, -1.03708311E-02,  4.16227427E-03,
				        -9.76360929E-03,  1.12604129E-02, -1.40996266E-02,
				         1.09054250E-03,  9.59760704E-04,  6.27918623E-03,
				        -2.95423496E-02,  8.79775471E-03,  1.42604072E-03,
				         1.82143340E-02, -1.26927020E-02, -2.13627695E-03,
				        -1.53466159E-02, -1.33511486E-02,  9.62048311E-03,
				         8.19836009E-03, -2.43581371E-03,  1.98820502E-03,
				         4.59990381E-03,  1.18263140E-02,  8.85597615E-03,
				         2.78717788E-02, -7.57322592E-04,  2.30924772E-02,
				        -5.27280307E-03,  8.54751722E-03,  4.06573847E-03,
				         1.16882297E-02,  3.79470873E-04,  2.73349808E-02,
				        -3.19517480E-02,  1.32307885E-02,  1.07140704E-02,
				         1.19131793E-02,  2.71176134E-02,  2.06422166E-02,
				        -2.21435183E-02,  1.74222345E-02, -7.02185533E-03,
				         3.25207881E-03,  6.89374220E-03, -1.34179201E-02,
				        -2.15540662E-02,  2.23194067E-03,  2.20202034E-03,
				        -9.13658553E-03, -1.43644985E-02,  1.58384934E-05,
				        -4.93468725E-03, -1.05839155E-03,  2.86689028E-02,
				         9.05203404E-03,  2.06281621E-02, -9.82832480E-03,
				         2.48237647E-02, -4.56732988E-04,  1.90576350E-03,
				         6.76509374E-04,  5.65412073E-03, -2.44959156E-02,
				        -1.56360424E-04,  1.03892582E-02,  2.21289517E-02,
				         6.87811813E-03, -1.05908793E-02, -2.18380934E-02,
				         5.05885445E-03, -2.85535800E-02, -2.36949715E-03,
				         8.15775464E-03,  1.37337609E-03, -4.31211265E-03,
				        -2.98311360E-02, -9.42993119E-04,  1.63916226E-02,
				        -4.09987291E-03, -6.59086736E-03,  5.99182979E-03,
				         1.07541646E-02,  1.36553971E-02, -1.38213207E-02,
				        -7.78947335E-03,  4.54549534E-03,  1.53500588E-02,
				         2.17790397E-02, -9.69173717E-03,  1.37636239E-02,
				         2.05575316E-02,  4.25373494E-03, -3.69690817E-03,
				        -1.52857730E-02,  1.65067328E-02, -3.06456362E-04,
				         2.25259761E-02,  2.77925560E-02, -2.10979556E-02,
				        -7.50359913E-03, -1.82256215E-03, -1.65290964E-02,
				        -1.30544725E-02,  2.35620989E-02, -9.92646748E-03,
				         3.96802909E-03, -2.99551955E-02, -1.04217987E-02,
				        -1.25731361E-02, -1.27013671E-02, -2.16019309E-03,
				        -2.19062592E-03, -2.32463202E-02, -7.79109633E-03,
				         1.23086220E-02},
				       {-1.63258455E-02,  3.14918460E-02,  2.01061039E-02,
				        -7.32597662E-03, -3.31233641E-02, -3.44912970E-02,
				        -1.20510507E-02, -1.18003395E-02, -1.55265248E-02,
				         2.69223941E-02,  1.47748672E-02,  1.34978458E-02,
				        -1.08553897E-02,  1.30151206E-02,  3.14111277E-04,
				         1.75626880E-03,  6.27763260E-03,  4.53211331E-02,
				        -2.23752777E-02, -2.14723008E-03, -2.83369128E-02,
				         9.18384367E-03,  4.21207022E-03,  3.49477393E-02,
				         8.10119484E-03, -2.28698183E-02, -1.90200801E-02,
				         2.90324463E-02, -3.59045024E-02,  1.62632320E-02,
				        -1.40182982E-02, -2.69559276E-03,  9.57007401E-04,
				        -1.81483649E-02, -1.14553800E-02, -7.23892161E-04,
				         2.77912701E-02,  1.11500962E-02, -1.20950721E-02,
				         3.64924545E-04, -1.22205969E-02,  3.36639974E-03,
				        -1.53647624E-02, -4.43960273E-03,  2.83941804E-02,
				        -1.89500443E-02,  1.27211230E-02, -3.16862665E-03,
				         1.12445812E-02, -1.71814324E-03,  9.44061272E-04,
				         1.92054948E-03,  2.18935486E-02,  1.86418829E-02,
				         4.20366729E-03,  2.29958438E-02,  1.96282393E-02,
				         1.82602137E-02,  2.06206843E-02, -1.97583912E-02,
				         2.82182630E-02, -1.55242463E-02, -7.74962093E-04,
				         1.35081494E-02, -3.29536704E-02,  6.50329544E-04,
				         1.78417566E-02,  2.75329352E-03,  1.25012324E-02,
				        -8.22074552E-03, -2.25357176E-02,  2.92368322E-04,
				        -1.77344880E-02, -4.09271631E-03, -1.26477020E-02,
				         2.87892335E-03, -1.20084838E-02, -6.16624441E-03,
				         3.51357784E-02, -5.22037110E-04, -1.44768194E-03,
				         1.85858241E-02,  9.65224578E-03,  2.05025821E-02,
				         7.79016768E-03,  6.45011423E-03, -2.29812966E-03,
				         2.04856283E-02,  7.55956312E-03,  5.64102055E-04,
				         3.26635193E-02, -3.18708293E-02, -8.10168318E-03,
				         1.22530409E-02, -1.01301744E-02, -1.14215992E-02,
				         1.03797341E-02,  1.44079619E-03,  1.31748097E-02,
				        -1.10291112E-02,  1.79722411E-03, -7.08593049E-03,
				        -1.55679963E-02, -1.41761277E-02,  1.24268975E-02,
				        -3.57395330E-02, -5.39541693E-03, -1.48155107E-02,
				         3.60608704E-03, -2.89003996E-03,  9.47741297E-03,
				         7.13815160E-03, -2.70669159E-02,  9.21882848E-03,
				        -6.82383718E-03,  2.17746835E-03, -5.06309253E-03,
				         9.12118072E-03,  3.50588935E-02, -1.33505034E-04,
				         3.52572856E-02, -8.60208612E-03, -5.23147812E-03,
				         2.00527011E-02,  2.25354172E-03,  1.13469549E-02,
				         5.80020761E-03,  2.71275533E-02, -2.15121105E-02,
				        -1.58954777E-02,  7.05262157E-03,  4.36007291E-02,
				        -9.38248582E-03,  9.33770125E-03,  2.93475934E-02,
				         1.49259969E-02,  3.61363373E-02, -2.55315662E-02,
				        -1.81334024E-02, -2.95606758E-02, -8.29366073E-03,
				         4.46578612E-03, -1.22379125E-02,  4.24149004E-03,
				         5.64260510E-03, -1.12322214E-02,  8.89795137E-03,
				        -9.44656410E-03, -1.24310883E-02,  1.70517549E-02,
				         3.09690185E-02,  1.57710788E-02, -9.09358387E-03,
				         1.04116474E-02,  1.56449458E-02,  8.85070863E-03,
				        -2.36938636E-03, -3.99057612E-02,  1.15070075E-02,
				         2.31386916E-03,  2.76280671E-03, -9.26170955E-03,
				        -3.21807115E-02,  1.95509064E-04,  1.73525744E-02,
				         1.37160487E-02, -8.96933330E-03,  2.36386511E-03,
				        -5.13246000E-03, -2.96591271E-02,  3.53364160E-03,
				         2.46636575E-02,  3.14502866E-02, -2.26991711E-03,
				         1.10503529E-02, -2.80945499E-02, -1.80115227E-02,
				         8.62765185E-03,  8.06455954E-03, -2.24185732E-02,
				        -1.29545187E-02, -1.12597034E-02,  1.34851213E-02,
				        -3.79961091E-03,  2.75163650E-03,  1.72269221E-02,
				         9.95423865E-03, -1.46420062E-02,  3.55366640E-03,
				        -1.58830387E-02,  3.49468837E-03,  1.88220258E-02,
				         1.41201560E-02,  1.00976566E-02,  8.08061155E-03,
				         1.54173828E-02,  4.29631990E-03,  1.14013582E-02,
				         4.12824214E-03,  7.47685082E-03,  5.73536252E-03,
				         1.49053354E-02,  1.77253500E-02, -8.86847498E-03,
				        -1.60878281E-02, -3.35209005E-03,  2.96980763E-02,
				         1.17791412E-02, -3.71856199E-02,  1.22978973E-02,
				        -1.50785255E-02,  2.11059987E-03, -2.27467690E-02,
				        -3.65524403E-02,  2.68945466E-02,  1.65693442E-02,
				         2.37573936E-02,  1.04513082E-02, -2.30609222E-02,
				         3.35431371E-02, -4.35553246E-02, -1.01233456E-03,
				        -1.02130753E-02, -1.15014516E-02, -3.39431779E-02,
				        -2.29644182E-02, -6.22153669E-03,  2.22419273E-02,
				        -1.38338463E-02,  7.30517491E-03,  9.05087671E-03,
				         1.53200332E-02, -8.50132085E-03,  1.94583623E-02,
				        -1.72851324E-02,  9.72743050E-03, -1.05693939E-02,
				        -1.14610791E-02, -8.80090840E-03, -2.35323785E-02,
				        -1.39335408E-02,  4.96317131E-03,  1.23613316E-02,
				        -8.66153801E-04,  1.68297392E-02, -2.32713090E-02,
				         6.22257339E-04,  1.07275165E-02,  1.39276473E-02,
				         1.12930855E-03,  3.44192479E-02,  3.59757558E-03,
				        -1.70960447E-02,  4.28886918E-03, -2.19163160E-02,
				         1.75465020E-02, -3.81369520E-03, -6.20762576E-03,
				         4.23336765E-03, -1.93871309E-03, -3.04710698E-02,
				        -3.53156890E-02, -4.18442143E-03,  2.46394457E-03,
				         1.06129350E-02, -4.46276814E-03, -1.23329468E-02,
				         2.20418308E-03, -1.18253525E-02,  1.69506589E-03,
				        -2.39307602E-02, -4.27268450E-03, -2.82806104E-02,
				         2.94271048E-02, -6.24955730E-03,  1.46962474E-02,
				        -6.46245266E-03,  4.48959337E-04,  1.34517794E-03,
				        -1.18694732E-02, -6.98833987E-03, -4.14723939E-03,
				         9.37337782E-03, -1.10550103E-02,  5.48695932E-03,
				         1.00756689E-02, -9.03807069E-03,  1.63073271E-03,
				         9.64946272E-03,  8.79050036E-03,  5.25738805E-03,
				         2.56832935E-02, -1.42081613E-02,  3.32011897E-02,
				        -1.58766655E-02, -8.35636645E-03,  9.85408886E-03,
				         3.61105434E-02, -1.29913061E-02, -2.15723313E-02,
				         7.15977198E-04, -6.25538378E-03,  3.27436516E-02,
				         8.50831318E-03, -9.79083603E-03,  1.48393529E-02,
				         1.16930645E-02, -2.15285394E-02,  4.45242858E-02,
				         1.02076259E-02,  9.89861066E-04, -4.35295982E-05,
				         3.04192742E-02,  6.91601233E-03,  4.67855222E-03,
				        -2.70790870E-02, -9.35587182E-03, -2.49075946E-02,
				         3.47484690E-03,  8.25100904E-03, -5.22667965E-02,
				        -1.48717725E-03, -2.67587908E-02,  7.94372852E-03,
				         6.78649588E-03, -1.66173262E-02,  9.95899917E-04,
				         5.21641384E-03,  2.38924582E-03,  3.26564300E-02,
				         4.81719571E-03, -2.04593273E-02,  7.39655580E-04,
				         7.02737617E-04,  1.55175415E-04, -5.49814480E-03,
				         1.44858592E-02,  3.09745236E-02,  2.21701687E-02,
				        -1.12022874E-02, -1.10712750E-02,  1.03754592E-02,
				         3.75021469E-03,  3.29237721E-02,  7.47904051E-03,
				        -1.44897714E-02, -2.22027191E-02,  1.73813233E-03,
				         2.79083493E-02, -1.43293785E-02, -1.78013523E-04,
				         2.30002812E-03, -1.13472657E-02,  1.76117188E-02,
				         1.92954459E-02, -4.36019528E-04, -2.97361489E-02,
				        -7.43979687E-03, -1.85567636E-03,  7.64490363E-04,
				         1.59553988E-04,  1.28269708E-03, -1.05681684E-02,
				        -1.61363719E-03,  1.26315322E-02, -9.68713259E-03,
				         9.68331614E-03,  8.48663523E-03,  1.59286331E-02,
				        -3.81088847E-03, -2.84328689E-02,  8.66536741E-03,
				         2.71853164E-02,  2.52860550E-02,  1.57105186E-02,
				         2.81547313E-02, -4.71650953E-03,  1.61041027E-02,
				        -9.27503361E-03, -6.52899706E-03,  7.11109619E-03,
				        -3.74547815E-03, -1.33060444E-02,  1.36296715E-02,
				         3.95817632E-03,  2.20180732E-02, -2.03568326E-02,
				        -5.81420031E-03, -7.78444439E-03, -4.34773465E-03,
				         1.22697481E-02, -1.74181861E-02,  1.81884603E-02,
				        -7.29153164E-03,  1.90413489E-02,  2.31394310E-02,
				         3.10916048E-02, -1.57541045E-02, -5.37847137E-03,
				         1.22407708E-02,  1.56454402E-02, -7.99668079E-03,
				         1.37158180E-02,  6.69436381E-04, -8.90787702E-03,
				        -9.75488483E-03,  1.93867897E-02, -2.17472133E-03,
				        -5.88885476E-03,  3.05354444E-02,  2.35529471E-03,
				        -1.98103551E-02,  7.41807584E-04, -3.45367300E-03,
				        -6.18648220E-03,  5.19696095E-03, -3.61629210E-02,
				         3.32017876E-03, -1.62103743E-02,  8.99830434E-03,
				         7.59568955E-03, -4.17853916E-02,  7.35134966E-03,
				         1.05564026E-02,  3.55565217E-03, -1.13189487E-02,
				         1.98586670E-02,  1.41468866E-02, -1.37490068E-02,
				         2.90933726E-03,  2.17834236E-02,  1.89589141E-02,
				         1.87220970E-02, -2.21402762E-03,  1.91375234E-02,
				         2.56259900E-02,  3.36378887E-02,  1.25458749E-02,
				         8.53099731E-03,  9.47032406E-03,  3.23047739E-04,
				         7.92789286E-04,  1.96363352E-03, -7.32683441E-03,
				         3.87774035E-04, -1.47771670E-03,  8.29843493E-03,
				        -1.08737905E-03,  6.41536429E-03,  7.37647456E-03,
				         3.83590478E-03,  3.75049860E-02,  1.55919868E-02,
				        -2.32171838E-02, -1.97929927E-02,  1.43289767E-02,
				         1.69775609E-02, -4.61863921E-03,  2.66616940E-03,
				        -1.26014996E-03, -2.43089041E-03,  1.03326607E-02,
				        -1.66694600E-02, -1.13964502E-02,  8.99721712E-03,
				        -1.19974896E-02, -7.17878774E-04,  3.97187691E-03,
				        -3.28943354E-02,  1.00105164E-02, -1.66604250E-03,
				         2.81965495E-02,  3.73213069E-02, -2.48861436E-02,
				        -1.84535373E-03, -7.62741532E-03, -3.32616293E-03,
				        -1.86142187E-02, -1.88163479E-02, -3.17239643E-02,
				        -1.31156794E-02,  7.20324443E-03,  5.00724995E-03,
				         4.16726306E-02,  2.11800334E-02, -1.63156209E-02,
				        -4.16781415E-03,  2.13186712E-02,  1.07610727E-02,
				         2.35453366E-03, -1.76668114E-02, -2.66199167E-03,
				        -3.73470755E-02,  2.15051031E-02,  1.17484711E-02,
				         8.84070534E-03, -3.68599913E-03, -1.70501234E-02,
				        -2.40107451E-03,  1.27629948E-02,  2.49286097E-02,
				        -6.84419794E-03, -2.29440177E-02,  9.88984951E-03,
				         1.52995484E-02,  1.37795247E-03,  9.91937455E-03,
				         3.02016764E-02, -5.41994683E-03,  1.10156232E-02,
				         7.17870987E-03,  1.23392105E-02,  2.94062773E-03,
				         1.72961375E-02, -6.18054499E-04, -2.48258959E-02,
				         5.80327523E-03,  5.55203514E-03, -6.16913100E-04,
				        -5.28496503E-03,  3.89152396E-03, -2.22346323E-02,
				         2.06384118E-02, -3.42470047E-03, -5.59579354E-03,
				        -3.71842257E-03, -2.35943494E-02,  4.41947568E-03,
				         2.57375777E-03,  1.41814507E-02,  1.81467716E-03,
				         2.56060223E-03,  2.96738357E-02, -5.39165248E-03,
				         2.16968377E-03, -1.05508025E-02, -7.11326388E-03,
				        -2.86777700E-03, -2.45136788E-02, -4.64075946E-03,
				         7.94817301E-03,  1.62391157E-02,  8.20694099E-03,
				         3.07594669E-02,  1.06672095E-02, -1.09894586E-02,
				        -3.69612419E-03,  1.46355265E-02,  2.69542983E-02,
				         1.82006044E-02,  9.52491081E-03,  2.35625698E-02,
				         7.94303076E-03,  5.54468207E-03,  1.57660555E-02,
				         1.62258032E-03, -4.86933166E-03, -2.20789373E-02,
				        -1.19705205E-02,  4.40065082E-03, -2.54158350E-03,
				         2.84764144E-02, -1.25299401E-02, -3.35065959E-02,
				        -1.87341139E-02, -9.44584267E-03, -1.37803748E-02,
				        -6.34682609E-03,  5.46595276E-03, -5.22880921E-03,
				        -5.35530815E-03,  4.42226535E-03, -5.29566786E-03,
				         1.07015822E-02,  2.56688138E-03, -4.13364393E-03,
				         8.19354109E-03, -1.53072593E-02, -6.52755838E-03,
				        -1.62817678E-02, -5.65699479E-03, -9.95836053E-03,
				        -3.62492580E-03, -1.60026476E-02, -1.76323516E-02,
				         2.44346462E-02,  3.54954282E-02,  2.34525326E-02,
				         8.24599511E-04, -3.33365861E-02,  1.41814879E-02,
				        -3.19149742E-03, -6.72723786E-03,  6.95251329E-03,
				         6.59656607E-03,  2.29487773E-02,  3.03457179E-02,
				         3.43103143E-03, -1.30791663E-02,  2.07958804E-03,
				        -2.17068295E-02, -6.85848260E-03, -1.79710096E-02,
				         1.23642561E-02,  1.80475543E-02, -5.90475957E-03,
				         6.12595126E-03,  2.64108516E-03,  1.21646655E-02,
				        -1.94226672E-03,  1.58326821E-02, -9.49102266E-03,
				         1.60021159E-02,  1.71617282E-02, -1.09914985E-03,
				         5.14292104E-03,  1.05910991E-03,  7.80955976E-03,
				         9.13732876E-03,  3.40785669E-03, -5.06023325E-03,
				         1.30057181E-02,  5.98858298E-03,  3.71837958E-02,
				        -1.62243574E-02,  3.02191242E-02,  6.82405617E-03,
				         1.24097477E-02, -8.39349856E-03, -6.78746374E-03,
				         6.21584557E-03, -2.86326454E-04, -2.01613736E-02,
				         1.87878458E-03,  1.52229339E-03, -4.89142919E-03,
				         1.45719446E-02,  2.17938098E-02, -1.28062256E-02,
				        -3.88320526E-03, -8.15839525E-03,  3.96189840E-03,
				         1.55652546E-02,  7.58536567E-03, -3.41258507E-03,
				        -7.74111684E-03,  2.48915504E-02,  1.92610656E-02,
				         9.45125357E-03, -2.04668060E-02,  1.62235643E-02,
				         6.93552752E-04, -1.41487438E-02,  2.09834010E-02,
				         8.46993252E-03, -2.15714084E-02, -6.74983497E-03,
				        -2.83559954E-03, -9.92403528E-03,  9.14870101E-03,
				         1.47198080E-02, -6.98086606E-03,  3.05911556E-02,
